-1.375551335513591766e-02 9.577048942446708679e-03 -7.076135952956974506e-04 2.831748314201831818e-02 -3.169430186972022057e-03 9.450448676943778992e-03 -1.079332455992698669e-02 -7.020192686468362808e-03 -3.411959111690521240e-02 -2.365293353796005249e-02 -1.472225412726402283e-02 1.322984811849892139e-03 6.937785446643829346e-02 7.676948606967926025e-02 3.112792968750000000e-02 3.969705477356910706e-02 1.297204010188579559e-02 2.965671382844448090e-02 -7.350006606429815292e-03 2.672542072832584381e-02 -5.756548605859279633e-03 3.779075108468532562e-03 3.233843669295310974e-02 -3.313108533620834351e-02 -2.248349972069263458e-02 -9.041616693139076233e-03 -1.392142754048109055e-02 3.085717186331748962e-02 -2.314927428960800171e-02 -1.644046045839786530e-02 -2.495144680142402649e-02 -3.344860672950744629e-02 -2.084787562489509583e-02 3.069993108510971069e-02 -4.061369597911834717e-02 -3.967152163386344910e-02 -8.339171111583709717e-02 -1.768389046192169189e-01 -1.550819873809814453e-01 5.355029702186584473e-01 6.743068695068359375e-01 6.164274811744689941e-01 -5.552684664726257324e-01 -8.121859431266784668e-01 -1.008104562759399414e+00 -8.531425595283508301e-01 -6.150952354073524475e-02 -6.571397930383682251e-02 -2.595382742583751678e-03 -4.984541609883308411e-02 1.738501526415348053e-02 -2.102865651249885559e-02 6.655144039541482925e-03 -2.768948301672935486e-02 -2.475307695567607880e-02 -1.844941452145576477e-02 1.615975238382816315e-02 1.436287257820367813e-02 -2.115544863045215607e-02 4.810832440853118896e-01 6.525522470474243164e-01 -5.396389588713645935e-02 -1.448689550161361694e-01 -2.523896098136901855e-02 -1.107015833258628845e-01 -1.410203129053115845e-01 -6.232037544250488281e-01 -1.025096058845520020e+00 -1.071402072906494141e+00 -1.390309810638427734e+00 -2.718464851379394531e+00 -2.710740327835083008e+00 -1.018176078796386719e+00 -1.271310091018676758e+00 -8.763797283172607422e-01 -6.615689396858215332e-01 -9.267401099205017090e-01 -6.945387125015258789e-01 -4.213686883449554443e-01 -9.809315949678421021e-02 -3.182906508445739746e-01 -3.068298399448394775e-01 -5.877184215933084488e-03 -1.634846068918704987e-02 1.373414974659681320e-02 -2.115369774401187897e-02 1.364293321967124939e-02 6.023942232131958008e-01 8.661234974861145020e-01 1.172816380858421326e-01 -8.258232474327087402e-01 -2.229350060224533081e-01 9.522688388824462891e-01 -8.091388940811157227e-01 -8.865667581558227539e-01 6.329869627952575684e-01 8.262311220169067383e-01 -5.647876262664794922e-01 -1.007691144943237305e+00 -1.567312479019165039e+00 -3.800675570964813232e-01 -1.026014909148216248e-01 5.834952592849731445e-01 1.463353633880615234e-01 -5.393137335777282715e-01 -9.576857686042785645e-01 -2.165870189666748047e+00 -8.612178564071655273e-01 -4.087219834327697754e-01 -4.549315273761749268e-01 2.981044054031372070e-01 -3.011724911630153656e-02 -8.888726122677326202e-03 1.611522282473742962e-03 7.836635410785675049e-02 1.516615450382232666e-01 6.604220867156982422e-01 6.769548058509826660e-01 4.453480839729309082e-01 4.332572221755981445e-01 -5.572720170021057129e-01 -8.855596184730529785e-01 -5.521852970123291016e-01 7.551079988479614258e-01 -1.088152751326560974e-01 8.421766161918640137e-01 5.797833204269409180e-01 1.413662880659103394e-01 -1.081971883773803711e+00 -1.412372708320617676e+00 -9.623935222625732422e-01 -1.566242694854736328e+00 -2.290572166442871094e+00 -2.026823759078979492e+00 -1.397595643997192383e+00 -6.638879179954528809e-01 -6.220297813415527344e-01 4.226666986942291260e-01 5.154392123222351074e-01 -3.092050254344940186e-01 -3.208291158080101013e-02 -1.693133078515529633e-02 3.347935900092124939e-02 1.263338029384613037e-01 2.189029157161712646e-01 4.670161902904510498e-01 -1.960278898477554321e-01 -9.068555831909179688e-01 -1.754736423492431641e+00 -2.055769443511962891e+00 -2.123713731765747070e+00 -2.193154811859130859e+00 -1.114003300666809082e+00 -3.144492805004119873e-01 -1.661277413368225098e+00 -3.696345090866088867e+00 -5.239811897277832031e+00 -5.067566871643066406e+00 -3.818452358245849609e+00 -1.955503582954406738e+00 -1.359863042831420898e+00 -1.789242506027221680e+00 -1.171694993972778320e+00 -5.143409371376037598e-01 -3.630259335041046143e-01 -1.694386601448059082e-01 6.061780825257301331e-02 1.089872941374778748e-01 3.225011378526687622e-02 2.704291343688964844e-01 7.821470499038696289e-01 7.545065879821777344e-01 1.039595723152160645e+00 5.923721194267272949e-01 -4.561866521835327148e-01 -1.174587130546569824e+00 -1.538794040679931641e+00 -1.103733539581298828e+00 -1.027988076210021973e+00 -1.885906219482421875e+00 -2.394538879394531250e+00 -2.221143960952758789e+00 -2.782484292984008789e+00 -3.942726373672485352e+00 -3.839190483093261719e+00 -3.936770200729370117e+00 -2.657412052154541016e+00 -1.118354320526123047e+00 -8.932404518127441406e-01 -9.966368675231933594e-01 -1.457852602005004883e+00 -9.142096042633056641e-01 -7.844550013542175293e-01 -2.472034394741058350e-01 -2.840699627995491028e-02 3.590671718120574951e-01 1.502392347902059555e-03 9.646826982498168945e-01 2.875301241874694824e-01 7.233973145484924316e-01 6.806205511093139648e-01 3.921441435813903809e-01 1.097389936447143555e+00 2.284907549619674683e-01 -4.483650326728820801e-01 7.048456370830535889e-02 -1.656024716794490814e-03 -1.214995384216308594e+00 -1.321589112281799316e+00 -1.454483985900878906e+00 -1.910491704940795898e+00 -1.599868178367614746e+00 -3.159128427505493164e-01 2.425395548343658447e-01 1.578635424375534058e-01 2.090224027633666992e-01 -2.280058115720748901e-01 -1.045635461807250977e+00 -4.725993871688842773e-01 1.636134237051010132e-01 1.058182001113891602e+00 6.882608532905578613e-01 -4.208056256175041199e-02 3.679578602313995361e-01 -4.981415867805480957e-01 1.013721346855163574e+00 -4.478224217891693115e-01 9.476048946380615234e-01 1.091873049736022949e+00 3.197577595710754395e-01 4.934225082397460938e-01 7.424669265747070312e-01 7.071811556816101074e-01 4.027669429779052734e-01 9.212167263031005859e-01 1.069241523742675781e+00 -1.254867296665906906e-02 -5.809749364852905273e-01 3.753400221467018127e-02 7.241057753562927246e-01 2.109196901321411133e+00 2.725412130355834961e+00 2.533471107482910156e+00 1.667228937149047852e+00 1.211773395538330078e+00 4.411825835704803467e-01 1.185516834259033203e+00 3.355930805206298828e+00 4.461638927459716797e+00 2.991682767868041992e+00 -1.240681484341621399e-01 5.780394673347473145e-01 -3.539815917611122131e-02 1.399685382843017578e+00 1.611549377441406250e+00 1.254203081130981445e+00 9.141175746917724609e-01 1.154698133468627930e+00 -6.721453368663787842e-02 3.898163139820098877e-02 -8.013735711574554443e-02 2.374202907085418701e-01 3.369093686342239380e-02 4.318498075008392334e-01 7.723257541656494141e-01 1.980244278907775879e+00 2.992336750030517578e+00 3.621513605117797852e+00 4.207372188568115234e+00 4.022990703582763672e+00 2.270409584045410156e+00 1.461916685104370117e+00 1.867242097854614258e+00 1.307247877120971680e+00 2.501103401184082031e+00 3.420284509658813477e+00 5.659885406494140625e+00 5.424618244171142578e+00 1.600898027420043945e+00 9.096463322639465332e-01 5.856871139258146286e-03 1.041249632835388184e+00 1.455612421035766602e+00 9.793142080307006836e-01 8.311622142791748047e-01 1.050493791699409485e-01 -1.467326879501342773e+00 -1.929685115814208984e+00 -1.395795345306396484e+00 8.517951965332031250e-01 2.141525149345397949e-01 5.453158542513847351e-02 1.441471934318542480e+00 3.299165964126586914e+00 3.171354532241821289e+00 3.749113082885742188e+00 3.932904005050659180e+00 2.652785062789916992e+00 8.304560780525207520e-01 4.973112940788269043e-01 1.934611320495605469e+00 2.526228427886962891e+00 1.987030744552612305e+00 2.950144767761230469e+00 4.856647014617919922e+00 5.075175285339355469e+00 2.474839448928833008e+00 3.533620238304138184e-01 2.711006812751293182e-02 8.576747775077819824e-01 1.540883660316467285e+00 1.074594855308532715e+00 8.446909785270690918e-01 -9.178171753883361816e-01 -1.873865127563476562e+00 -2.049881458282470703e+00 -1.266179323196411133e+00 4.852795004844665527e-01 1.773564815521240234e-01 1.092512607574462891e+00 2.430752277374267578e+00 2.577787399291992188e+00 1.707806468009948730e+00 1.971531391143798828e+00 1.708255410194396973e+00 4.154449403285980225e-01 -3.459844589233398438e-01 -3.546174615621566772e-02 8.825617283582687378e-02 -3.323584422469139099e-02 -1.392075657844543457e+00 1.296643167734146118e-01 2.218287706375122070e+00 3.999648332595825195e+00 1.786633491516113281e+00 -5.047155618667602539e-01 1.476997137069702148e-01 1.212959647178649902e+00 1.434484958648681641e+00 1.458939790725708008e+00 2.838762700557708740e-01 3.475779592990875244e-01 -7.716032862663269043e-01 -5.094288587570190430e-01 3.881747424602508545e-01 1.435275435447692871e+00 9.201056957244873047e-01 8.419418931007385254e-01 1.040055036544799805e+00 1.824846506118774414e+00 9.528102278709411621e-01 -3.460299223661422729e-02 -1.251935482025146484e+00 -1.251746654510498047e+00 -1.480576872825622559e+00 -9.371736049652099609e-01 -1.228459954261779785e+00 -3.434267044067382812e+00 -3.669588565826416016e+00 -3.710040569305419922e+00 -2.384930610656738281e+00 4.520779103040695190e-02 7.159380316734313965e-01 -1.376099824905395508e+00 -2.437254041433334351e-02 7.555980682373046875e-01 8.443871140480041504e-01 8.406476378440856934e-01 4.152181446552276611e-01 6.133322715759277344e-01 -1.058658003807067871e+00 -3.129257857799530029e-01 7.063629031181335449e-01 1.502955436706542969e+00 6.844846010208129883e-01 -3.963331878185272217e-01 8.508039116859436035e-01 4.048840105533599854e-01 -7.466034293174743652e-01 -2.046764373779296875e+00 -2.006166458129882812e+00 -1.822265505790710449e+00 -2.247997283935546875e+00 -9.877447485923767090e-01 -9.176813960075378418e-01 -4.338804244995117188e+00 -3.966934919357299805e+00 -3.530632257461547852e+00 -2.960903882980346680e+00 -1.202693104743957520e+00 -1.115892291069030762e+00 -1.410498023033142090e+00 2.699171900749206543e-01 5.474506616592407227e-01 1.731859922409057617e+00 3.615863025188446045e-01 5.053278803825378418e-01 -2.120168805122375488e-01 -1.587229728698730469e+00 -1.230986595153808594e+00 -3.921881318092346191e-01 -7.907137274742126465e-02 -1.470864713191986084e-01 -4.024370908737182617e-01 -5.677603483200073242e-01 -1.337917804718017578e+00 -2.341505527496337891e+00 -1.228804826736450195e+00 -1.170562028884887695e+00 -7.555543631315231323e-02 -8.092696666717529297e-01 -7.851057648658752441e-01 -4.662370979785919189e-01 -2.402834892272949219e+00 -2.896218776702880859e+00 -2.216465711593627930e+00 -1.953731656074523926e+00 5.194475054740905762e-01 -5.169120430946350098e-01 -1.100931644439697266e+00 2.958290874958038330e-01 8.977362513542175293e-02 6.506984829902648926e-01 -5.065239965915679932e-02 -1.598882079124450684e-01 -1.315164089202880859e+00 -1.187291383743286133e+00 -2.449540048837661743e-01 -1.121733903884887695e+00 -8.870386481285095215e-01 -1.106459498405456543e+00 -1.395276188850402832e+00 -1.307494759559631348e+00 -2.330714941024780273e+00 -2.517744779586791992e+00 -1.238421797752380371e+00 -5.226313471794128418e-01 1.053277850151062012e+00 3.094695508480072021e-01 4.920909702777862549e-01 -1.615988910198211670e-01 -1.269793987274169922e+00 -2.085257053375244141e+00 -2.332873344421386719e+00 -2.369069099426269531e+00 -7.161979675292968750e-01 2.195178717374801636e-02 -4.626033902168273926e-01 1.484497338533401489e-01 2.476157844066619873e-01 9.054132699966430664e-01 2.249457873404026031e-02 3.565607666969299316e-01 -2.574428617954254150e-01 -3.947995007038116455e-01 -9.461337924003601074e-01 -1.435979008674621582e+00 -2.071088314056396484e+00 -1.426132678985595703e+00 -2.134456157684326172e+00 -2.955083370208740234e+00 -2.432532072067260742e+00 -2.459636926651000977e+00 -1.716377854347229004e+00 -3.400863707065582275e-01 1.127334594726562500e+00 8.071986436843872070e-01 1.129225969314575195e+00 1.588072180747985840e-01 -6.386262178421020508e-01 -1.528573870658874512e+00 -2.120682001113891602e+00 -2.096877574920654297e+00 -1.789249897003173828e+00 -1.192113757133483887e+00 -9.351940453052520752e-02 -2.521186321973800659e-02 2.001796215772628784e-01 9.079258441925048828e-01 -3.038533031940460205e-01 4.773532748222351074e-01 1.818585515022277832e+00 1.060665249824523926e+00 -2.308329343795776367e-01 -1.055506348609924316e+00 -1.052079319953918457e+00 -6.391718387603759766e-01 -1.402326583862304688e+00 -2.109112501144409180e+00 -1.148612737655639648e+00 -1.013033747673034668e+00 -1.021757006645202637e+00 7.468288540840148926e-01 1.649535059928894043e+00 7.111251950263977051e-01 7.359303236007690430e-01 -2.320698499679565430e-01 -5.671635866165161133e-01 -8.972578048706054688e-01 -2.263046503067016602e+00 -2.678112030029296875e+00 -1.856696724891662598e+00 -7.784978747367858887e-01 3.494702279567718506e-01 8.147601485252380371e-01 1.311104930937290192e-02 8.055607080459594727e-01 -1.371747851371765137e+00 -2.670029699802398682e-01 1.199210882186889648e+00 1.612142324447631836e+00 1.565066456794738770e+00 7.181957960128784180e-01 9.200110435485839844e-01 1.057703137397766113e+00 1.302716732025146484e+00 8.232142925262451172e-01 5.535059571266174316e-01 -1.368519216775894165e-01 -4.697644412517547607e-01 -5.795197933912277222e-02 6.017183661460876465e-01 8.958162367343902588e-02 1.799394786357879639e-01 -9.284194111824035645e-01 -7.776466012001037598e-01 -1.102770090103149414e+00 -2.312902212142944336e+00 -2.916792154312133789e+00 -1.111372828483581543e+00 -3.874120712280273438e-01 -5.979636907577514648e-01 -9.103711694478988647e-03 5.303180217742919922e-01 4.355876147747039795e-01 -1.597039222717285156e+00 -4.764248132705688477e-01 -6.116700917482376099e-02 7.809745073318481445e-01 4.251473248004913330e-01 5.146290063858032227e-01 6.681984066963195801e-01 1.283307522535324097e-01 3.203259110450744629e-01 1.436263203620910645e+00 1.308472156524658203e+00 8.865180425345897675e-03 -1.010454058647155762e+00 -1.018549561500549316e+00 -4.986801445484161377e-01 -3.495450615882873535e-01 -3.520982861518859863e-01 -2.598374128341674805e+00 -2.003353118896484375e+00 -9.799606800079345703e-01 -1.432489514350891113e+00 -1.038953661918640137e+00 -7.571240067481994629e-01 -5.713798403739929199e-01 -2.561011910438537598e-01 -2.311191894114017487e-02 9.873297214508056641e-01 1.253108233213424683e-01 -1.322143197059631348e+00 -1.131061553955078125e+00 -6.385735422372817993e-02 -3.395286500453948975e-01 -2.382338196039199829e-01 5.560202598571777344e-01 6.106812506914138794e-02 -5.449630022048950195e-01 -4.824278503656387329e-02 5.857244133949279785e-01 5.084189176559448242e-01 -6.477560997009277344e-01 -1.254272222518920898e+00 -1.154813170433044434e+00 -1.142434716224670410e+00 -1.013890147209167480e+00 -4.663613140583038330e-01 -2.192069053649902344e+00 -2.277236461639404297e+00 -1.916932016611099243e-01 2.787973582744598389e-01 3.817367255687713623e-01 -4.108720421791076660e-01 -4.203803837299346924e-01 2.208348549902439117e-02 -3.273946419358253479e-02 1.243967115879058838e-01 -1.283051818609237671e-01 -1.522337436676025391e+00 -6.830503940582275391e-01 -1.879919052124023438e+00 -7.672463059425354004e-01 -4.110859334468841553e-01 -4.170452654361724854e-01 -6.987219452857971191e-01 -1.593934178352355957e+00 -3.407568633556365967e-01 4.999857544898986816e-01 1.507218088954687119e-02 -1.267646074295043945e+00 -9.124412536621093750e-01 -6.081985831260681152e-01 -7.970153093338012695e-01 -3.194237351417541504e-01 -6.795521974563598633e-01 -8.430312871932983398e-01 -1.151467680931091309e+00 -2.678157687187194824e-01 -1.094772741198539734e-01 -4.892196655273437500e-01 -4.426574800163507462e-03 -5.171347260475158691e-01 4.800937138497829437e-03 -1.697608828544616699e-02 3.363759070634841919e-02 -5.650790929794311523e-01 -1.517919063568115234e+00 -1.386020779609680176e+00 -1.476209163665771484e+00 -1.085997462272644043e+00 -1.786608934402465820e+00 -1.363082051277160645e+00 -7.875932455062866211e-01 -2.201715469360351562e+00 -1.406924962997436523e+00 -1.863436102867126465e-01 -4.787462949752807617e-01 -1.217209696769714355e+00 -2.587854862213134766e-01 1.092424616217613220e-01 -1.742765009403228760e-01 -2.094565331935882568e-01 -4.415578544139862061e-01 -1.418559432029724121e+00 -6.746113300323486328e-01 -2.344397157430648804e-01 -1.264040946960449219e+00 -8.871004581451416016e-01 -5.057800412178039551e-01 -1.005835771560668945e+00 2.937502227723598480e-02 -2.841101028025150299e-02 -8.591017685830593109e-03 -5.757232904434204102e-01 -1.009086966514587402e+00 1.166810840368270874e-01 -2.875615060329437256e-01 -1.364514976739883423e-01 -1.069437623023986816e+00 -1.731686234474182129e+00 -1.987143039703369141e+00 -2.146210432052612305e+00 -1.924246072769165039e+00 -7.034624218940734863e-01 -1.235938191413879395e+00 -6.478064060211181641e-01 4.046847522258758545e-01 4.509967863559722900e-01 4.073804318904876709e-01 -1.004816174507141113e+00 -1.369113087654113770e+00 -8.567828536033630371e-01 -4.929200410842895508e-01 -1.112670421600341797e+00 -1.603495001792907715e+00 4.781431853771209717e-01 -1.403149485588073730e+00 -4.706859290599822998e-01 2.742203325033187866e-02 -5.320928059518337250e-03 -1.416253275237977505e-03 4.475973844528198242e-01 5.306236743927001953e-01 5.928081274032592773e-01 5.167747735977172852e-01 6.894687414169311523e-01 1.833974570035934448e-01 6.924582272768020630e-02 -1.229044318199157715e+00 -1.996900558471679688e+00 -1.509246349334716797e+00 -9.789657592773437500e-02 -2.257904261350631714e-01 -5.794479250907897949e-01 2.689034044742584229e-01 3.354475796222686768e-01 8.289908170700073242e-01 6.998210400342941284e-02 4.944572150707244873e-01 2.367960661649703979e-01 -6.276757121086120605e-01 -8.060265183448791504e-01 -1.873006701469421387e+00 1.545153260231018066e-01 -1.333755970001220703e+00 -3.194246441125869751e-02 8.134267292916774750e-03 -2.264110557734966278e-02 -3.861917182803153992e-03 -2.545877695083618164e-01 8.605839610099792480e-01 1.238773107528686523e+00 1.260987877845764160e+00 1.327929735183715820e+00 1.261875987052917480e+00 4.358508288860321045e-01 -1.185930371284484863e+00 -1.077641606330871582e+00 2.735731899738311768e-01 2.246641397476196289e+00 1.471800446510314941e+00 8.088629841804504395e-01 2.773159027099609375e+00 2.889966726303100586e+00 1.881885051727294922e+00 1.278222680091857910e+00 2.631603002548217773e+00 2.487418651580810547e+00 1.514346837997436523e+00 1.696546196937561035e+00 -6.962755918502807617e-01 6.777158379554748535e-01 -2.633646130561828613e-01 -6.956224329769611359e-03 2.834896184504032135e-02 -8.077511563897132874e-03 3.251991234719753265e-03 -2.496544830501079559e-02 -1.964577287435531616e-01 -9.551559090614318848e-01 -2.966996431350708008e-01 -5.067554116249084473e-01 -6.980433315038681030e-02 -4.485352337360382080e-01 6.662656068801879883e-01 5.308774709701538086e-01 1.795382499694824219e+00 5.325143933296203613e-01 1.004333376884460449e+00 1.331508278846740723e+00 3.032155513763427734e+00 1.131687760353088379e+00 1.340562343597412109e+00 2.925004243850708008e+00 4.328256130218505859e+00 2.671987533569335938e+00 1.891893863677978516e+00 1.766005635261535645e+00 2.139090299606323242e-01 -5.112246274948120117e-01 2.695911936461925507e-02 -1.486101839691400528e-02 -2.480902895331382751e-02 5.499767605215311050e-03 2.140662260353565216e-02 -3.219969943165779114e-02 3.228455409407615662e-02 2.757485210895538330e-01 2.739363908767700195e-01 4.146743118762969971e-01 2.662441134452819824e-01 4.005878269672393799e-01 6.716991066932678223e-01 1.793361186981201172e+00 1.848652064800262451e-01 -1.015815615653991699e+00 8.747471570968627930e-01 9.936799407005310059e-01 -1.516396850347518921e-01 -5.527648329734802246e-01 2.282398223876953125e+00 5.395482778549194336e-01 1.829306960105895996e+00 8.920096158981323242e-01 1.395261883735656738e+00 1.508068203926086426e+00 1.410251975059509277e+00 -1.977708563208580017e-02 -1.498126611113548279e-02 -1.044241059571504593e-02 -3.479126840829849243e-02
1.856024842709302902e-03 6.316389422863721848e-03 -3.023658609890844673e-05 1.153322681784629822e-02 3.388753533363342285e-02 9.495859034359455109e-03 -1.307401526719331741e-02 -1.469809748232364655e-02 -2.285019867122173309e-02 -2.475781552493572235e-02 -5.751780234277248383e-03 -6.316627841442823410e-03 1.301648765802383423e-01 9.908098727464675903e-02 2.847156114876270294e-02 -2.506000734865665436e-02 1.015067173284478486e-04 3.210428357124328613e-02 3.551375493407249451e-02 -2.068793773651123047e-02 6.361748557537794113e-03 4.218667745590209961e-03 -1.674470305442810059e-02 -1.233910303562879562e-02 9.673357009887695312e-03 -2.483447268605232239e-02 5.892702843993902206e-03 1.545445434749126434e-02 -1.407393440604209900e-02 2.966575697064399719e-02 -2.350372960790991783e-03 1.620402559638023376e-02 3.536808490753173828e-02 -1.091672759503126144e-02 9.599639475345611572e-02 2.926668226718902588e-01 3.344451189041137695e-01 4.115030169486999512e-01 2.464036196470260620e-01 2.029246687889099121e-01 2.282541841268539429e-01 2.038034349679946899e-01 3.377840518951416016e-01 5.942525267601013184e-01 9.591314792633056641e-01 1.086396336555480957e+00 1.655367970466613770e+00 1.211766362190246582e+00 3.397808969020843506e-01 2.934746146202087402e-01 2.683009207248687744e-01 2.866316437721252441e-01 -6.457746494561433792e-03 2.333842590451240540e-02 2.022969070822000504e-03 1.349059678614139557e-02 1.556058041751384735e-02 -8.763084188103675842e-03 2.036907151341438293e-02 3.828749060630798340e-01 5.603506565093994141e-01 -1.655080169439315796e-01 -1.565236151218414307e-01 -3.496355712413787842e-01 -6.576071977615356445e-01 -1.065211772918701172e+00 -9.500075578689575195e-01 -7.866972684860229492e-02 2.228886932134628296e-01 6.430619955062866211e-02 -1.510336279869079590e+00 -1.065161466598510742e+00 1.479117870330810547e+00 9.648953676223754883e-01 1.728046178817749023e+00 2.594710350036621094e+00 2.846680879592895508e+00 1.360041141510009766e+00 1.867275834083557129e+00 6.732856631278991699e-01 6.784713268280029297e-01 8.725860118865966797e-01 4.770049359649419785e-03 -6.745534483343362808e-03 -3.570859506726264954e-02 1.828717417083680630e-03 -5.482612848281860352e-01 -2.050895616412162781e-02 8.049463033676147461e-01 -8.839255571365356445e-01 -1.265189886093139648e+00 -6.615004539489746094e-01 -4.456071257591247559e-01 -1.660681724548339844e+00 -2.325393199920654297e+00 -2.165153026580810547e+00 -1.421920061111450195e+00 -1.691671609878540039e+00 -1.039020538330078125e+00 1.713768094778060913e-01 2.420836448669433594e+00 2.708731651306152344e+00 1.685763835906982422e+00 1.248875975608825684e+00 1.000993728637695312e+00 4.227600991725921631e-01 -7.880517244338989258e-01 6.718678474426269531e-01 2.023302018642425537e-01 -2.001598626375198364e-01 5.387457013130187988e-01 1.071051694452762604e-02 2.988600358366966248e-02 3.509492054581642151e-02 -1.681516170501708984e-01 5.188338458538055420e-02 1.641831398010253906e-01 -9.950499236583709717e-02 -3.049401640892028809e-01 -6.479043513536453247e-02 -4.280098378658294678e-01 -7.047042250633239746e-01 -1.077909827232360840e+00 -2.318927347660064697e-01 -5.391553044319152832e-01 3.342961668968200684e-01 1.754233479499816895e+00 2.223898649215698242e+00 8.722717761993408203e-01 8.010084629058837891e-01 3.941196501255035400e-01 -6.331144571304321289e-01 -7.512833476066589355e-01 1.707102060317993164e-01 -1.197079539299011230e+00 -9.269009232521057129e-01 -6.730239838361740112e-02 1.187085628509521484e+00 7.646867632865905762e-01 8.370937108993530273e-01 2.704670652747154236e-02 1.120680198073387146e-02 -4.180188477039337158e-01 3.606449067592620850e-01 1.441955804824829102e+00 -4.000369459390640259e-02 -1.200710296630859375e+00 -2.520217001438140869e-01 -6.525589823722839355e-01 -1.085039854049682617e+00 -4.437610208988189697e-01 8.780201077461242676e-01 1.242076277732849121e+00 1.763412833213806152e+00 1.819903969764709473e+00 2.282125711441040039e+00 2.611533880233764648e+00 2.700811386108398438e+00 2.387588977813720703e+00 1.958037018775939941e+00 2.059813499450683594e+00 1.633491039276123047e+00 6.731011271476745605e-01 -4.342327415943145752e-01 1.637270152568817139e-01 1.057899236679077148e+00 1.405617743730545044e-01 -8.164297938346862793e-01 4.757268354296684265e-03 -1.577361673116683960e-01 -8.075845241546630859e-01 8.558814227581024170e-02 -2.420576661825180054e-01 -1.412596464157104492e+00 -1.759680151939392090e+00 4.734503105282783508e-02 -1.186660155653953552e-01 -5.999875068664550781e-01 5.980595201253890991e-02 3.006948530673980713e-01 5.382301211357116699e-01 1.421076655387878418e+00 1.050279259681701660e+00 2.043649673461914062e+00 1.624424576759338379e+00 1.706158995628356934e+00 1.451433062553405762e+00 2.507952690124511719e+00 1.805729389190673828e+00 1.561648845672607422e+00 4.289912879467010498e-01 9.659345746040344238e-01 1.761265635490417480e+00 1.935244917869567871e+00 -1.000409603118896484e+00 5.784693360328674316e-01 5.061149597167968750e-03 -1.243711337447166443e-01 -9.552452564239501953e-01 -6.602104306221008301e-01 -8.925112485885620117e-01 -1.289373517036437988e+00 -1.186025261878967285e+00 5.636304616928100586e-01 -7.569183409214019775e-02 -1.176709011197090149e-01 -3.149596750736236572e-01 -2.052831053733825684e-01 -2.416045218706130981e-01 -2.524470984935760498e-01 1.861691772937774658e-01 1.626508235931396484e+00 1.619381785392761230e+00 1.258348226547241211e+00 1.435723185539245605e+00 1.452010035514831543e+00 6.951541900634765625e-01 2.252244800329208374e-01 -3.597347438335418701e-01 1.393955469131469727e+00 2.122284412384033203e+00 1.980958461761474609e+00 -2.383123487234115601e-01 1.096502661705017090e+00 1.811059191823005676e-02 -7.603074908256530762e-01 2.483122795820236206e-02 -1.440323114395141602e+00 -8.851963281631469727e-01 -1.175369262695312500e+00 6.011556386947631836e-01 7.167241573333740234e-01 4.163910821080207825e-02 -8.066137433052062988e-01 -8.580844402313232422e-01 -4.479545354843139648e-01 -2.423549890518188477e-01 -1.338663250207901001e-01 7.390366494655609131e-02 9.312407970428466797e-01 1.573702931404113770e+00 1.322227954864501953e+00 9.762556552886962891e-01 1.629742048680782318e-02 -4.588018655776977539e-01 5.432966947555541992e-01 5.377538800239562988e-01 1.723004341125488281e+00 2.831019163131713867e+00 2.000805377960205078e+00 1.483953356742858887e+00 5.292553305625915527e-01 -2.274415455758571625e-02 -3.258903622627258301e-01 -8.860105276107788086e-01 -3.979528546333312988e-01 -4.016360640525817871e-01 4.768532142043113708e-02 1.454124927520751953e+00 1.017396330833435059e+00 3.420538306236267090e-01 -2.200628817081451416e-01 1.932857185602188110e-01 -9.616143703460693359e-01 -5.528056025505065918e-01 4.997780919075012207e-01 -1.131320521235466003e-01 -2.835572063922882080e-01 -3.954422473907470703e-01 1.528861969709396362e-01 3.169061839580535889e-01 -2.554271519184112549e-01 3.284069299697875977e-01 1.350997090339660645e+00 9.230613112449645996e-01 2.757053852081298828e+00 2.725115537643432617e+00 8.614230751991271973e-01 1.516993641853332520e+00 -6.904093027114868164e-01 1.399911381304264069e-02 -1.352090090513229370e-01 -2.302557945251464844e+00 -9.601728916168212891e-01 2.398375570774078369e-01 4.690262377262115479e-01 1.636453628540039062e+00 9.104385375976562500e-01 6.582450866699218750e-01 2.321494743227958679e-03 1.116650626063346863e-01 -2.753520011901855469e-01 9.835034012794494629e-01 8.737761974334716797e-01 6.874558925628662109e-01 -1.777852773666381836e+00 -1.816371202468872070e+00 -6.190430521965026855e-01 -4.072955250740051270e-02 7.827407866716384888e-02 3.297582268714904785e-01 1.516986250877380371e+00 1.406261086463928223e+00 2.713442802429199219e+00 4.058166027069091797e+00 2.466343402862548828e+00 1.394688725471496582e+00 -2.019133120775222778e-01 7.600784883834421635e-04 -6.638695597648620605e-01 -2.357293128967285156e+00 -1.586811661720275879e+00 -1.432585358619689941e+00 -2.470491975545883179e-01 1.589862942695617676e+00 1.509944200515747070e+00 1.081579804420471191e+00 5.669996738433837891e-01 -8.682118356227874756e-02 1.253404887393116951e-03 -8.923314511775970459e-02 2.489102602005004883e+00 2.284878730773925781e+00 -1.394608974456787109e+00 -1.647732496261596680e+00 -1.655023694038391113e+00 -1.698018312454223633e+00 -1.020667791366577148e+00 -1.410325169563293457e-01 6.542057991027832031e-01 1.498027801513671875e+00 3.290339946746826172e+00 5.454717636108398438e+00 3.427247285842895508e+00 2.024523496627807617e+00 1.621921174228191376e-02 -2.078677266836166382e-01 -7.458112239837646484e-01 -1.430827617645263672e+00 -1.393190026283264160e+00 -2.008408546447753906e+00 -2.605439722537994385e-01 1.055596828460693359e+00 8.365929126739501953e-01 6.698063611984252930e-01 1.065037727355957031e+00 1.836309283971786499e-01 9.880628436803817749e-02 2.668071985244750977e+00 4.086273670196533203e+00 2.437680959701538086e+00 -7.804825305938720703e-01 -1.476391196250915527e+00 -1.814110398292541504e+00 -1.358023524284362793e+00 1.579094380140304565e-01 4.407138377428054810e-02 4.792098999023437500e-01 1.395335078239440918e+00 3.753516912460327148e+00 3.049510240554809570e+00 1.493646383285522461e+00 1.386476874351501465e+00 1.851576119661331177e-01 -1.088333055377006531e-01 -1.048032268881797791e-01 -1.800924181938171387e+00 -1.001626372337341309e+00 -5.854160785675048828e-01 1.537129282951354980e-02 7.214870303869247437e-02 4.052352607250213623e-01 2.714456319808959961e-01 4.596808552742004395e-01 -6.244621276855468750e-01 1.162089109420776367e+00 3.078240871429443359e+00 3.483766317367553711e+00 1.168211817741394043e+00 4.559360146522521973e-01 -4.369582831859588623e-01 -1.779453635215759277e+00 -4.944202303886413574e-01 -2.335144206881523132e-03 -1.104643568396568298e-02 3.325004875659942627e-02 5.206639170646667480e-01 4.294936656951904297e-01 1.177671104669570923e-01 -7.837670445442199707e-01 6.937579512596130371e-01 3.024780750274658203e-01 2.379694879055023193e-01 -8.901036530733108521e-02 -1.498661756515502930e+00 -2.223780155181884766e+00 -1.553986787796020508e+00 -8.152721822261810303e-02 -1.790715008974075317e-01 -2.639084756374359131e-01 2.027130573987960815e-01 -2.345172166824340820e-01 -7.424383759498596191e-01 1.590234041213989258e+00 2.493297576904296875e+00 1.955957293510437012e+00 8.915629386901855469e-01 -4.247325658798217773e-01 -2.232583999633789062e+00 -1.063896298408508301e+00 -1.316031813621520996e+00 -2.500351667404174805e+00 -1.549593091011047363e+00 -5.042343139648437500e-01 -1.142785787582397461e+00 -1.621020793914794922e+00 -4.489283859729766846e-01 -1.125371575355529785e+00 -3.302070379257202148e+00 -2.677339315414428711e-01 1.776957213878631592e-01 1.987378001213073730e-01 -4.875662624835968018e-01 -1.208871483802795410e+00 -1.316282510757446289e+00 -8.353553414344787598e-01 -1.881730675697326660e+00 -1.357666015625000000e+00 -9.846560955047607422e-01 5.305157303810119629e-01 1.648848414421081543e+00 1.560597777366638184e+00 2.076135873794555664e+00 1.495965838432312012e+00 -2.527634799480438232e-01 -2.329913616180419922e+00 -2.347824811935424805e+00 -1.169449567794799805e+00 -1.438313603401184082e+00 -2.777752876281738281e+00 -1.257185697555541992e+00 -1.345147967338562012e+00 -7.902799844741821289e-01 -9.743597507476806641e-01 -1.130718946456909180e+00 -1.750172615051269531e+00 -3.624825716018676758e+00 -1.548590421676635742e+00 -1.407685279846191406e-01 1.199568435549736023e-01 5.503318905830383301e-01 -4.917673170566558838e-01 -6.242011785507202148e-01 -7.265422344207763672e-01 -1.554998874664306641e+00 -1.314646363258361816e+00 -6.692380309104919434e-01 -3.874952718615531921e-02 1.144303202629089355e+00 1.641359686851501465e+00 7.949187755584716797e-01 -1.802574247121810913e-01 -1.851689934730529785e+00 -2.320540189743041992e+00 -1.076364517211914062e+00 -1.329203486442565918e+00 -7.359488606452941895e-01 -2.118542432785034180e+00 -1.325289130210876465e+00 -1.637644052505493164e+00 -2.308607101440429688e-01 1.847632378339767456e-01 7.413014024496078491e-02 -1.239409327507019043e+00 -3.382586240768432617e+00 -1.338990688323974609e+00 1.171854604035615921e-02 1.264892965555191040e-01 4.558143913745880127e-01 1.098562836647033691e+00 -1.430200695991516113e+00 -1.034015893936157227e+00 1.614131480455398560e-01 -7.063235044479370117e-01 2.101832926273345947e-01 3.071904182434082031e-01 5.068449974060058594e-01 -4.427204430103302002e-01 -2.192181795835494995e-01 -1.048192262649536133e+00 -1.569924235343933105e+00 -1.163059234619140625e+00 -2.870791256427764893e-01 -1.605179160833358765e-01 -5.331763625144958496e-01 -8.605007529258728027e-01 1.681053787469863892e-01 -1.356798112392425537e-01 1.270870447158813477e+00 1.485752701759338379e+00 3.292055130004882812e+00 -1.378658175468444824e+00 -1.548695206642150879e+00 -1.726167678833007812e+00 -2.566582150757312775e-02 -5.927971005439758301e-02 -3.844771981239318848e-01 7.787321209907531738e-01 -2.401807069778442383e+00 -3.342997133731842041e-01 2.012834787368774414e+00 1.434029340744018555e+00 1.358509302139282227e+00 1.630385398864746094e+00 1.794424176216125488e+00 2.460816688835620880e-02 -1.820930480957031250e+00 -1.763237476348876953e+00 -2.201268196105957031e+00 -1.131974458694458008e+00 4.553687870502471924e-01 1.006681442260742188e+00 5.600596666336059570e-01 3.058069050312042236e-01 4.256756603717803955e-01 9.448623061180114746e-01 2.716682434082031250e+00 1.645483255386352539e+00 2.119548320770263672e+00 -1.512075424194335938e+00 -4.403175711631774902e-01 -8.188635110855102539e-01 -6.302303075790405273e-02 2.056837454438209534e-02 -5.390217900276184082e-01 -6.818450987339019775e-02 -2.083942890167236328e+00 1.445488214492797852e+00 1.824285387992858887e+00 1.442766904830932617e+00 2.942148923873901367e+00 1.773851990699768066e+00 1.244121074676513672e+00 3.230060040950775146e-01 -5.986009836196899414e-01 -1.695456743240356445e+00 -2.263128519058227539e+00 -2.348089516162872314e-01 1.272943496704101562e+00 -6.098207831382751465e-02 7.491542100906372070e-01 8.992180824279785156e-01 1.650555491447448730e+00 1.725320935249328613e+00 2.587647438049316406e+00 1.139022231101989746e+00 8.739176988601684570e-01 -2.666701316833496094e+00 -2.162755489349365234e+00 -7.661758661270141602e-01 2.580302301794290543e-03 4.540365934371948242e-01 -2.782519757747650146e-01 -1.711523532867431641e+00 -9.968299865722656250e-01 2.356533527374267578e+00 3.333326101303100586e+00 3.249322414398193359e+00 2.860660076141357422e+00 9.069976806640625000e-01 6.259549260139465332e-01 3.012030124664306641e-01 5.363354086875915527e-01 -6.695149838924407959e-02 -9.258332848548889160e-01 1.144103765487670898e+00 3.355566561222076416e-01 -4.654772281646728516e-01 1.556391119956970215e-01 1.816842079162597656e+00 1.457020759582519531e+00 1.659866690635681152e+00 1.365899682044982910e+00 1.035152226686477661e-01 -1.021257162094116211e+00 -1.704742789268493652e+00 -1.652540087699890137e+00 5.971476063132286072e-02 2.490708371624350548e-03 1.453582644462585449e-01 -2.642980515956878662e-01 -2.031550884246826172e+00 4.471171200275421143e-01 1.923424124717712402e+00 3.490761041641235352e+00 3.235042810440063477e+00 1.283881664276123047e+00 9.340022802352905273e-01 1.034390449523925781e+00 1.287682890892028809e+00 1.475490927696228027e+00 1.357062816619873047e+00 1.163672089576721191e+00 1.597060084342956543e+00 1.000158041715621948e-01 -3.733516633510589600e-01 4.369954168796539307e-01 1.158869504928588867e+00 6.527159214019775391e-01 1.739141941070556641e+00 1.129673123359680176e+00 -1.185560703277587891e+00 -8.012790083885192871e-01 -9.580121636390686035e-01 -1.903445005416870117e+00 1.344903558492660522e-02 7.915698923170566559e-03 2.975642215460538864e-03 -7.649410963058471680e-01 -8.962548375129699707e-01 -6.221317648887634277e-01 1.366927772760391235e-01 2.230052471160888672e+00 1.092095255851745605e+00 1.435845613479614258e+00 6.928654313087463379e-01 8.971300721168518066e-01 2.363151311874389648e+00 2.611373901367187500e+00 2.698070287704467773e+00 1.875648856163024902e+00 1.716742038726806641e+00 8.417289853096008301e-01 8.591171503067016602e-01 4.661230146884918213e-01 1.105885267257690430e+00 4.995630681514739990e-01 8.316018581390380859e-01 3.875771462917327881e-01 -1.904057741165161133e+00 -1.571260809898376465e+00 -7.715815901756286621e-01 -1.775960445404052734e+00 6.624715169891715050e-04 2.456833235919475555e-02 -1.446330640465021133e-02 -6.726108789443969727e-01 1.397378802299499512e+00 -1.363858282566070557e-01 -1.919199943542480469e+00 -8.600447773933410645e-01 -4.114282727241516113e-01 2.070365190505981445e+00 1.998258233070373535e+00 2.085786581039428711e+00 2.046927452087402344e+00 2.463993072509765625e+00 3.494941711425781250e+00 2.839138746261596680e+00 3.157107830047607422e+00 2.351726770401000977e+00 1.195874452590942383e+00 9.239848852157592773e-01 2.305066347122192383e+00 1.122622847557067871e+00 -1.559631824493408203e-01 -1.439381361007690430e+00 -1.590205430984497070e+00 -1.899306654930114746e+00 -2.392646551132202148e+00 -1.427823185920715332e+00 1.500000339001417160e-02 -1.627349480986595154e-02 -4.139423370361328125e-03 -1.027235627174377441e+00 7.141872644424438477e-01 -1.058045625686645508e+00 -2.237807750701904297e+00 -1.981385111808776855e+00 -7.951676249504089355e-01 -2.058357149362564087e-01 1.538609743118286133e+00 1.460768699645996094e+00 1.246642112731933594e+00 1.214462280273437500e+00 2.540736198425292969e+00 2.705532073974609375e+00 2.517296075820922852e+00 1.610837936401367188e+00 -1.326565816998481750e-02 7.922868728637695312e-01 1.027103900909423828e+00 1.151587665081024170e-01 -1.794314026832580566e+00 -2.783445119857788086e+00 -2.013356208801269531e+00 -1.599002599716186523e+00 -1.661852478981018066e+00 -6.386159658432006836e-01 -1.950941048562526703e-02 2.813497744500637054e-02 3.250569337978959084e-03 -1.701909005641937256e-01 -1.260876953601837158e-01 -2.006968736648559570e+00 -1.595657944679260254e+00 -1.584365248680114746e+00 -1.672821879386901855e+00 -1.743858098983764648e+00 -5.215038061141967773e-01 7.713792920112609863e-01 7.773301005363464355e-02 -1.343317866325378418e+00 -1.050765275955200195e+00 -9.194881319999694824e-01 -3.916027247905731201e-01 -9.862337708473205566e-01 -9.569905996322631836e-01 -1.780789256095886230e+00 -1.943972706794738770e+00 -2.546670198440551758e+00 -1.637292623519897461e+00 -1.744276762008666992e+00 -2.722755908966064453e+00 -9.206368327140808105e-01 -1.101182579994201660e+00 -5.869607925415039062e-01 -3.307255730032920837e-02 -6.616809871047735214e-03 5.837253411300480366e-04 -2.301565371453762054e-03 -2.667264342308044434e-01 6.780183315277099609e-01 7.035492658615112305e-01 1.383017778396606445e+00 1.206363677978515625e+00 -4.207913279533386230e-01 -1.193985939025878906e+00 -1.300653576850891113e+00 -7.115101218223571777e-01 -8.503414988517761230e-01 -1.025429368019104004e+00 -1.394934177398681641e+00 -2.643140792846679688e+00 -2.641147613525390625e+00 -2.891290664672851562e+00 -2.159351348876953125e+00 -2.388553857803344727e+00 -2.011636972427368164e+00 -1.526684284210205078e+00 -1.102054953575134277e+00 -1.256449699401855469e+00 2.240440249443054199e-01 -2.471903152763843536e-02 1.369333732873201370e-02 3.216698765754699707e-02 -6.210084538906812668e-03 2.835389599204063416e-02 5.887278821319341660e-04 -2.674446068704128265e-02 -1.959344372153282166e-02 -3.540187701582908630e-02 -1.620697379112243652e-01 -3.014853894710540771e-01 -2.822771668434143066e-01 -5.865718722343444824e-01 2.638112902641296387e-01 6.922011971473693848e-01 -1.158834338188171387e+00 -2.056569576263427734e+00 -2.554125547409057617e+00 -1.123495340347290039e+00 8.596524596214294434e-01 -1.253080725669860840e+00 -1.031057596206665039e+00 -2.006010055541992188e+00 -1.651242852210998535e+00 -1.922504067420959473e+00 -1.708657860755920410e+00 -1.011520266532897949e+00 -2.014850825071334839e-02 1.489856932312250137e-02 -3.327596187591552734e-02 -2.036570385098457336e-02
2.677608095109462738e-02 -1.831602677702903748e-02 -1.486271247267723083e-02 -1.002763491123914719e-02 1.526639796793460846e-02 -2.342748828232288361e-02 3.580906661227345467e-03 1.458581071346998215e-02 -2.592614851891994476e-03 6.457810290157794952e-03 -2.724455669522285461e-02 1.614641025662422180e-02 1.334748137742280960e-02 -4.479719325900077820e-03 -2.953108400106430054e-02 1.428484171628952026e-02 2.330505475401878357e-02 -6.246711593121290207e-03 1.683348976075649261e-02 1.323782559484243393e-02 -1.428455580025911331e-02 -2.479297807440161705e-03 3.555137664079666138e-02 1.686087780399248004e-04 -2.843262627720832825e-02 -2.604582579806447029e-03 1.776759698987007141e-02 -1.165798772126436234e-02 -1.870298385620117188e-02 2.942065335810184479e-02 1.889327727258205414e-02 -6.067604292184114456e-03 1.824604696594178677e-03 -3.777240170165896416e-03 8.291628211736679077e-03 1.269268221221864223e-03 -2.161196433007717133e-02 6.616937462240457535e-03 9.340984979644417763e-04 2.309054136276245117e-03 -1.361028291285037994e-02 1.201317086815834045e-01 9.323568642139434814e-02 -4.101524502038955688e-02 -1.111169829964637756e-01 -1.281984895467758179e-01 -2.774286456406116486e-02 -1.298274437431246042e-04 5.069801045465283096e-05 -3.086445666849613190e-02 -2.526054345071315765e-02 3.303352743387222290e-02 2.670781128108501434e-02 1.979296654462814331e-02 2.474138326942920685e-02 1.374867651611566544e-02 2.009959891438484192e-02 2.365434728562831879e-02 -8.343130350112915039e-03 -4.540073219686746597e-03 2.546594478189945221e-02 -1.286183123738737777e-05 -2.323880419135093689e-02 -2.769281715154647827e-02 1.997412182390689850e-02 -4.594938084483146667e-02 -1.552738249301910400e-01 -1.157616525888442993e-01 1.410585548728704453e-02 2.798656746745109558e-02 3.540872409939765930e-02 5.287951324135065079e-03 -1.544348429888486862e-02 -6.053424626588821411e-02 -7.622932642698287964e-02 -4.796572029590606689e-02 -1.336903311312198639e-02 -2.290515042841434479e-02 1.377494074404239655e-02 6.539242807775735855e-03 -2.557566016912460327e-02 -2.352364175021648407e-02 1.674534752964973450e-02 2.715631574392318726e-02 2.907395595684647560e-03 -1.793875172734260559e-02 1.724551431834697723e-02 6.228766404092311859e-03 -3.126712143421173096e-02 -2.314444072544574738e-02 1.307499259710311890e-01 1.495718508958816528e-01 1.954328417778015137e-01 -2.988924831151962280e-02 -9.710995107889175415e-02 -2.590080909430980682e-02 2.129066735506057739e-02 -1.957871392369270325e-02 1.968594640493392944e-02 3.713612258434295654e-02 -1.631630808115005493e-01 -1.591746509075164795e-01 -9.385961107909679413e-03 1.012110188603401184e-01 2.105721682310104370e-01 1.092824786901473999e-01 2.716239728033542633e-02 -1.953607052564620972e-01 -1.362292915582656860e-01 2.943029254674911499e-02 -1.603247597813606262e-02 -2.512761577963829041e-02 -3.860669676214456558e-03 -2.406458929181098938e-02 -1.865619421005249023e-02 1.820750348269939423e-02 -3.540312498807907104e-02 -4.073297977447509766e-02 7.128298282623291016e-02 4.531629011034965515e-02 -1.251130849123001099e-01 -2.103984951972961426e-01 -1.742531657218933105e-01 -1.024223640561103821e-01 -3.297482803463935852e-02 -1.258336156606674194e-01 -3.384848535060882568e-01 -2.125065922737121582e-01 -1.254438757896423340e-01 -2.624594271183013916e-01 -1.864179386757314205e-03 1.039949655532836914e-01 2.090510874986648560e-01 1.267131865024566650e-01 5.937036499381065369e-02 -1.245759576559066772e-01 -2.293168604373931885e-01 -1.157650426030158997e-01 2.690522372722625732e-02 8.075902238488197327e-03 -1.332295406609773636e-02 -1.553447823971509933e-02 2.004581317305564880e-02 6.626346614211797714e-03 -4.935579001903533936e-02 -7.915283739566802979e-02 5.855796486139297485e-02 2.099886536598205566e-02 8.012727648019790649e-02 8.744658529758453369e-02 -5.024389550089836121e-02 -2.939344197511672974e-02 -2.071365565061569214e-01 -1.709155589342117310e-01 -1.944746077060699463e-01 -2.599793970584869385e-01 -1.750143170356750488e-01 -1.517127901315689087e-01 -3.245669975876808167e-02 -7.887237519025802612e-02 9.500548988580703735e-02 1.959840953350067139e-01 -4.310215357691049576e-03 -2.107325047254562378e-01 -2.408219128847122192e-01 -1.531611382961273193e-02 1.249155998229980469e-01 1.788231357932090759e-02 -2.614000067114830017e-02 3.088058903813362122e-02 -5.299704498611390591e-04 -1.587578328326344490e-03 -1.045229285955429077e-01 -1.041886955499649048e-01 1.593054234981536865e-01 1.648337393999099731e-02 1.069771405309438705e-02 -5.179919302463531494e-02 -1.389674693346023560e-01 -1.886154711246490479e-01 -2.859731912612915039e-01 -3.026141226291656494e-01 -1.726586669683456421e-01 -1.152977049350738525e-01 -8.083809167146682739e-03 4.728977754712104797e-02 7.331672310829162598e-02 -3.989027068018913269e-02 -4.425645247101783752e-02 7.652528584003448486e-02 5.225738883018493652e-02 -5.072823166847229004e-02 1.652794927358627319e-01 2.031064629554748535e-01 9.425771981477737427e-02 3.410888835787773132e-02 1.222383137792348862e-02 -1.817853190004825592e-02 -2.144296839833259583e-02 -1.252407766878604889e-02 -1.059750095009803772e-01 -4.781580530107021332e-03 1.342989951372146606e-01 1.123296543955802917e-01 1.146536692976951599e-02 -1.994850784540176392e-01 -1.955718845129013062e-01 -3.033225834369659424e-01 -3.374183773994445801e-01 -2.454778999090194702e-01 4.320463165640830994e-02 -5.459784716367721558e-02 1.098868325352668762e-01 1.037008911371231079e-01 -5.606674030423164368e-02 2.832322195172309875e-02 -8.477281779050827026e-02 -1.676023937761783600e-02 9.970824420452117920e-02 1.405766904354095459e-01 1.047047153115272522e-01 2.170571088790893555e-01 1.429265365004539490e-02 -9.268475696444511414e-03 1.896827667951583862e-02 1.717384904623031616e-02 1.370611600577831268e-02 -9.036796109285205603e-05 -8.612949401140213013e-02 -1.676355488598346710e-02 4.058940708637237549e-02 1.369280964136123657e-01 3.210718929767608643e-02 -1.768281757831573486e-01 -2.987923622131347656e-01 -3.177997767925262451e-01 -2.716717422008514404e-01 -3.370842710137367249e-02 -3.825211897492408752e-02 2.949550189077854156e-02 -1.719071865081787109e-01 -1.429532766342163086e-01 -1.348156183958053589e-01 -5.674258992075920105e-02 -3.541696444153785706e-02 -9.307591617107391357e-02 7.154583465307950974e-03 8.620721846818923950e-02 -5.653830990195274353e-02 -2.784356707707047462e-03 -5.571359768509864807e-02 -1.261789910495281219e-02 -3.540492057800292969e-02 -9.287868626415729523e-03 7.359942793846130371e-02 9.079745411872863770e-02 1.720544695854187012e-02 1.387501358985900879e-01 1.506693661212921143e-01 -3.577812574803829193e-03 -1.738994866609573364e-01 -2.434180378913879395e-01 -2.982970774173736572e-01 -2.390830963850021362e-01 -1.987968832254409790e-01 -3.832454979419708252e-02 -7.193558849394321442e-03 -1.758312135934829712e-01 -2.480801492929458618e-01 -2.134907245635986328e-01 -1.951843202114105225e-01 -8.380226790904998779e-02 -3.074135445058345795e-02 2.764353156089782715e-02 -1.730391383171081543e-02 1.130009256303310394e-02 -5.782334879040718079e-02 -1.407154500484466553e-01 -4.738769307732582092e-02 -1.441208831965923309e-02 1.763033866882324219e-02 -1.978397369384765625e-03 8.651267737150192261e-02 7.468075305223464966e-02 7.830937951803207397e-02 1.809440553188323975e-01 2.248946130275726318e-01 -1.281603276729583740e-01 -2.221366316080093384e-01 -1.840188950300216675e-01 -4.887217283248901367e-02 -2.106467038393020630e-01 -2.174954861402511597e-01 -2.184590399265289307e-01 -1.494101434946060181e-01 -2.448996156454086304e-01 -2.133242785930633545e-01 -2.125340104103088379e-01 -1.857017874717712402e-01 8.964308537542819977e-03 1.145092695951461792e-01 2.297160029411315918e-01 2.242557555437088013e-01 5.704026669263839722e-02 -3.458752110600471497e-02 -9.526477754116058350e-02 -1.398586183786392212e-01 -1.401689741760492325e-02 3.130654990673065186e-02 -3.214906156063079834e-02 3.894446790218353271e-02 2.305904962122440338e-02 1.353903412818908691e-01 1.466412842273712158e-01 1.722525358200073242e-01 -1.946963667869567871e-01 -2.235788553953170776e-01 -1.956526339054107666e-01 -1.458908021450042725e-01 -1.373150944709777832e-01 -2.171258330345153809e-01 -2.250703573226928711e-01 -2.443210184574127197e-01 -2.834844887256622314e-01 -2.540357410907745361e-01 -2.170162796974182129e-01 -1.244142279028892517e-01 -1.013268083333969116e-01 3.043130636215209961e-01 3.003859519958496094e-01 2.943783998489379883e-01 1.354327145963907242e-02 1.548469662666320801e-01 -9.620327502489089966e-02 -1.322867125272750854e-01 -4.458176437765359879e-03 -3.374331444501876831e-02 2.421152219176292419e-02 -3.610802814364433289e-03 6.512208282947540283e-02 1.968182623386383057e-01 1.117925867438316345e-01 -2.634797804057598114e-02 -1.191023066639900208e-01 -2.308584153652191162e-01 -1.745518296957015991e-01 -1.268251389265060425e-01 -2.076474875211715698e-01 -3.072846531867980957e-01 -3.026306033134460449e-01 -2.758204936981201172e-01 -1.461179256439208984e-01 -2.425963729619979858e-01 -1.556732356548309326e-01 -1.757866740226745605e-01 -1.218336597084999084e-01 -6.108037382364273071e-02 -9.926362894475460052e-03 -4.908443894237279892e-03 -9.633947908878326416e-02 1.620583683252334595e-01 1.767620444297790527e-02 2.399116382002830505e-02 1.549614360556006432e-03 1.505434606224298477e-02 1.493703946471214294e-02 -3.083043918013572693e-02 1.093695312738418579e-02 9.171348065137863159e-02 -1.866007000207901001e-01 -4.489895999431610107e-01 -2.792592942714691162e-01 -2.501781284809112549e-01 -1.871841847896575928e-01 -1.604142040014266968e-01 -2.114700227975845337e-01 -2.595466673374176025e-01 -3.617959320545196533e-01 -3.244950771331787109e-01 -2.418950200080871582e-01 -2.281462401151657104e-01 -3.180426657199859619e-01 -2.574801146984100342e-01 -2.059879451990127563e-01 -1.665321290493011475e-01 -7.504419237375259399e-02 -6.340101361274719238e-02 1.104846876114606857e-02 5.379493907094001770e-02 -1.204867959022521973e-01 -2.517521940171718597e-02 2.909947000443935394e-02 -1.221445668488740921e-02 -1.645803079009056091e-02 -2.510799840092658997e-02 2.976455911993980408e-02 5.660107731819152832e-02 -3.163419365882873535e-01 -4.098863303661346436e-01 -2.518844902515411377e-01 -2.229961007833480835e-01 -2.768937051296234131e-01 -2.008366435766220093e-01 -2.107934057712554932e-01 -1.585240662097930908e-01 -2.101511657238006592e-01 -2.846323847770690918e-01 -3.079195618629455566e-01 -3.621992170810699463e-01 -3.727249503135681152e-01 -2.519688010215759277e-01 -5.961938202381134033e-02 -8.133649080991744995e-02 -1.920942589640617371e-02 1.815001107752323151e-02 -1.661272197961807251e-01 -1.103148758411407471e-01 -9.193073958158493042e-02 -3.534637391567230225e-02 -1.854026876389980316e-02 2.286318875849246979e-02 -5.583882797509431839e-03 -1.903726533055305481e-02 -5.283256992697715759e-02 -2.035428211092948914e-02 -1.706127077341079712e-01 -2.984017133712768555e-01 -1.963265240192413330e-01 -1.937433779239654541e-01 -2.667060196399688721e-01 -2.204162776470184326e-01 -1.067123413085937500e-01 -8.547093719244003296e-02 -1.601464599370956421e-01 -1.452908217906951904e-01 -1.428709030151367188e-01 -2.471663504838943481e-01 -3.269657194614410400e-01 -2.723101973533630371e-01 -9.989193081855773926e-02 -1.067288964986801147e-02 -2.326579950749874115e-02 -1.751886457204818726e-01 -2.032045722007751465e-01 -2.736643552780151367e-01 -1.055476516485214233e-01 -2.564432471990585327e-02 -2.409520372748374939e-02 -3.043916076421737671e-02 -2.198389731347560883e-02 9.269374422729015350e-04 -9.983421117067337036e-02 -3.728055162355303764e-04 -2.309013009071350098e-01 -1.586734801530838013e-01 -9.004563838243484497e-02 -1.013206019997596741e-01 -1.633201092481613159e-01 -2.184883505105972290e-01 -8.797128498554229736e-02 1.226535737514495850e-01 2.288538590073585510e-02 -8.853326737880706787e-02 -1.192633062601089478e-01 -2.004184126853942871e-01 -3.439405262470245361e-01 -1.942744106054306030e-01 -1.185551732778549194e-01 -1.527999490499496460e-01 -1.796951293945312500e-01 -1.791089624166488647e-01 -9.013113379478454590e-02 -3.125503659248352051e-01 -1.226619631052017212e-01 2.330836839973926544e-02 -1.493456587195396423e-02 -1.866439543664455414e-02 -1.031377911567687988e-02 -2.311514131724834442e-02 -6.697914749383926392e-02 -2.942706085741519928e-02 2.464628219604492188e-02 -1.927495896816253662e-01 -6.543757021427154541e-02 3.012178465723991394e-02 -7.525750435888767242e-03 -1.259421110153198242e-01 9.496667981147766113e-02 1.173307523131370544e-01 1.290981769561767578e-01 -6.336242705583572388e-02 -1.145968511700630188e-01 -1.520504653453826904e-01 -2.417368292808532715e-01 -2.902067005634307861e-01 -2.585871517658233643e-01 -2.622649669647216797e-01 -1.238743439316749573e-01 -1.444762051105499268e-01 -9.176281839609146118e-02 -3.402290046215057373e-01 -1.058594211935997009e-01 2.983221970498561859e-02 -1.760382391512393951e-02 6.233522202819585800e-03 -1.833491399884223938e-02 7.649524137377738953e-03 -1.017255038022994995e-01 -1.272791624069213867e-02 -1.219752430915832520e-02 -1.430267691612243652e-01 1.261032521724700928e-01 2.896130383014678955e-01 1.214453652501106262e-01 -1.117814555764198303e-01 -8.994390815496444702e-02 -7.273246347904205322e-02 -1.617754995822906494e-01 -1.780120134353637695e-01 -1.310420334339141846e-01 -7.692485302686691284e-02 -3.069550693035125732e-01 -3.337416946887969971e-01 -3.171642720699310303e-01 -1.992497891187667847e-01 -1.159913241863250732e-01 -1.171925067901611328e-01 -8.484008163213729858e-02 -9.329985827207565308e-02 -1.252277195453643799e-01 -2.983710728585720062e-03 -8.276450447738170624e-03 2.433810196816921234e-02 3.015417046844959259e-02 4.652266390621662140e-03 -9.749791026115417480e-02 2.473635971546173096e-02 4.811177402734756470e-02 -8.085803687572479248e-02 7.399886101484298706e-02 1.949414163827896118e-01 9.396938979625701904e-02 -2.257615886628627777e-02 -1.066858023405075073e-01 -5.908034369349479675e-02 -1.132248267531394958e-01 -8.449281752109527588e-02 -3.624976798892021179e-02 -8.888056874275207520e-02 -2.531186938285827637e-01 -4.409705698490142822e-01 -2.159640341997146606e-01 -1.736173331737518311e-01 -1.719901412725448608e-01 -7.824375480413436890e-02 -1.177884489297866821e-01 3.035642392933368683e-02 -1.434908956289291382e-01 -1.267916895449161530e-02 4.229141399264335632e-03 -3.033410012722015381e-02 9.688309393823146820e-03 -2.341006137430667877e-02 -8.536466211080551147e-02 -8.194230496883392334e-03 -4.517380893230438232e-02 7.206137478351593018e-02 1.052369847893714905e-01 3.571277484297752380e-02 4.628308117389678955e-02 -4.688886925578117371e-02 -1.364568769931793213e-01 -1.310685873031616211e-01 -1.621763855218887329e-01 -7.934723794460296631e-02 -7.531218230724334717e-02 -1.810251176357269287e-01 -2.507705092430114746e-01 -1.781246364116668701e-01 -1.693506240844726562e-01 -1.856314092874526978e-01 -1.888666450977325439e-01 -1.052114814519882202e-01 -1.750959157943725586e-01 9.611707180738449097e-02 -3.553499281406402588e-02 -1.474892348051071167e-02 -9.385611861944198608e-03 2.622615173459053040e-02 -1.041093142703175545e-03 -1.626818999648094177e-02 -1.033102124929428101e-01 -1.233369559049606323e-01 -3.301877900958061218e-02 1.248823776841163635e-01 7.009749114513397217e-02 7.020303606986999512e-02 1.241436321288347244e-02 -1.486648470163345337e-01 -1.526296436786651611e-01 -1.646180897951126099e-01 -1.880768388509750366e-01 -1.618987023830413818e-01 -1.531475931406021118e-01 -2.171532362699508667e-01 -3.284603953361511230e-01 -2.201068550348281860e-01 -2.049545198678970337e-01 -1.509301662445068359e-01 -1.677431166172027588e-01 -1.634707748889923096e-01 -1.069997102022171021e-01 -8.729909546673297882e-03 7.752358913421630859e-02 4.685321357101202011e-03 7.191845681518316269e-03 1.174626220017671585e-02 -8.439043536782264709e-03 -1.428241841495037079e-02 -1.123862266540527344e-01 -1.788119524717330933e-01 -9.406059980392456055e-02 2.364828437566757202e-02 5.741730332374572754e-02 2.765102311968803406e-02 2.509878575801849365e-02 4.913367331027984619e-02 -1.240682378411293030e-01 -1.656878590583801270e-01 -2.060218900442123413e-01 -2.148325443267822266e-01 -2.795684039592742920e-01 -3.157502114772796631e-01 -2.937256991863250732e-01 -1.493747681379318237e-01 -1.171256154775619507e-01 -1.232337728142738342e-01 -1.340667903423309326e-01 -1.510170549154281616e-01 -1.093608513474464417e-01 1.349723637104034424e-01 8.892467617988586426e-02 2.964367344975471497e-02 2.154632285237312317e-02 3.128071129322052002e-02 -1.045829150825738907e-02 -2.189124934375286102e-02 -3.678235411643981934e-02 -8.164659887552261353e-02 -2.283885776996612549e-01 -1.700035929679870605e-01 -7.527331262826919556e-02 -3.745480254292488098e-02 3.050904162228107452e-02 9.851749055087566376e-03 -5.141348764300346375e-02 -4.745858907699584961e-02 -2.322042584419250488e-01 -1.054509803652763367e-01 -2.395054399967193604e-01 -3.451185226440429688e-01 -3.186444044113159180e-01 5.262203887104988098e-02 1.678292602300643921e-01 1.888152062892913818e-01 -1.382354199886322021e-01 -3.601700067520141602e-02 -9.018339961767196655e-02 -2.798561705276370049e-03 -2.844626270234584808e-02 -3.121446445584297180e-02 -2.458917722105979919e-02 -9.061536751687526703e-03 2.079667896032333374e-02 -1.473514176905155182e-02 -1.387115102261304855e-03 1.717337965965270996e-01 3.253257647156715393e-02 5.832947418093681335e-02 2.206151783466339111e-01 2.156926319003105164e-02 -1.331149935722351074e-01 -2.007245272397994995e-01 -2.628841400146484375e-01 -7.408618927001953125e-02 -9.350781887769699097e-02 -9.002464264631271362e-02 -1.669601649045944214e-01 -1.392267346382141113e-01 -1.762160509824752808e-01 1.962884813547134399e-01 2.349011227488517761e-02 1.390583906322717667e-02 -1.215378791093826294e-01 -5.654659494757652283e-02 -7.876677811145782471e-02 -5.152323748916387558e-03 -2.030016295611858368e-02 2.857358194887638092e-02 1.661146618425846100e-02 1.017163135111331940e-02 8.446319028735160828e-03 7.882714853622019291e-04 2.048095688223838806e-02 9.636626392602920532e-02 1.244038492441177368e-01 -8.828739076852798462e-02 -1.213634833693504333e-01 -2.508979476988315582e-02 -3.161830827593803406e-02 4.813265055418014526e-03 -5.649273470044136047e-02 -8.136773109436035156e-02 -6.189995259046554565e-02 -1.086570695042610168e-01 -1.408038139343261719e-01 -9.946423023939132690e-02 -9.710085391998291016e-02 -1.271155942231416702e-02 -7.585866376757621765e-03 9.563053026795387268e-03 -9.262868016958236694e-02 -1.288246363401412964e-01 -1.036274135112762451e-01 1.327606588602066040e-01 1.309556234627962112e-02 2.436480484902858734e-02 -3.383971750736236572e-02 -1.487725600600242615e-02 -3.204780071973800659e-02 -1.423908211290836334e-02 2.177069894969463348e-02 -2.824864536523818970e-02 6.903388351202011108e-02 1.218280047178268433e-01 7.918375730514526367e-02 9.922296553850173950e-02 1.326914131641387939e-01 1.381126940250396729e-01 -4.875431954860687256e-02 1.046928018331527710e-02 3.090709261596202850e-02 1.035476289689540863e-02 -1.934328824281692505e-01 -5.135581642389297485e-02 -6.997609138488769531e-02 4.571297392249107361e-02 5.618097633123397827e-02 4.318651929497718811e-02 3.235851600766181946e-02 3.073936328291893005e-02 -3.809916321188211441e-03 -3.167059645056724548e-02 -2.184838056564331055e-03 2.359658479690551758e-03 2.387217991054058075e-02 1.149075455032289028e-03 1.039450149983167648e-02 9.476257488131523132e-03 -2.026434056460857391e-02 -2.215309813618659973e-02 -3.192036226391792297e-02 -2.804569085128605366e-04 1.106176711618900299e-02 -2.539455890655517578e-03 3.466664999723434448e-02 -6.812947336584329605e-03 -2.330453507602214813e-02 5.952422507107257843e-03 -1.005753874778747559e-02 -4.896049387753009796e-03 3.460535407066345215e-02 -1.024731667712330818e-03 9.120500087738037109e-02 6.481638550758361816e-02 4.675896465778350830e-02 8.610488474369049072e-02 -2.019509300589561462e-02 1.181674888357520103e-03 8.027642965316772461e-03 1.602979376912117004e-02 -3.295212611556053162e-02 1.751989242620766163e-03 -9.247133508324623108e-03
2.315594069659709930e-02 1.201585400849580765e-02 1.431417930871248245e-02 2.147356607019901276e-02 -7.995750755071640015e-03 -2.288196934387087822e-03 2.865191549062728882e-02 -2.878532744944095612e-02 -2.468641847372055054e-02 2.612680429592728615e-03 -1.414741389453411102e-02 2.045392990112304688e-03 -8.262414485216140747e-02 -1.184390485286712646e-01 -3.045123443007469177e-02 -1.623491384088993073e-02 3.279881551861763000e-02 -7.846049033105373383e-03 -1.565992459654808044e-02 1.607594825327396393e-02 4.421293735504150391e-03 -3.148855641484260559e-02 2.974238246679306030e-02 2.011159993708133698e-02 3.104232624173164368e-02 1.562854647636413574e-02 -1.204121205955743790e-02 -1.165883056819438934e-02 1.730793341994285583e-02 -6.923352368175983429e-03 7.001911289989948273e-03 -3.460672125220298767e-02 -1.765436865389347076e-02 1.326598506420850754e-02 -5.830694735050201416e-02 -7.371769100427627563e-02 -1.530477125197649002e-02 2.145540863275527954e-01 1.762869656085968018e-01 -5.916745662689208984e-01 -1.306996941566467285e+00 -1.351182341575622559e+00 1.256098151206970215e+00 4.732511937618255615e-01 -4.403756558895111084e-01 -1.148317098617553711e+00 -3.633938729763031006e-01 1.214054971933364868e-01 2.056511119008064270e-02 7.503507286310195923e-02 -4.714176058769226074e-01 -5.383929014205932617e-01 -2.371866814792156219e-02 -3.921534400433301926e-03 -2.585527487099170685e-02 3.520031645894050598e-02 3.865403996314853430e-04 -1.367256511002779007e-02 1.411500666290521622e-02 -5.667889714241027832e-01 -5.429598689079284668e-01 1.341841742396354675e-02 -8.687838166952133179e-02 -6.552038341760635376e-02 5.126414448022842407e-02 -8.274370431900024414e-01 -1.149690866470336914e+00 -1.286386728286743164e+00 -1.624944329261779785e+00 -1.736910939216613770e+00 -2.555691897869110107e-01 3.280292451381683350e-01 6.678117811679840088e-02 -6.067237854003906250e-01 -6.114767193794250488e-01 -5.519309639930725098e-01 -2.709813416004180908e-01 -4.131007194519042969e-01 -4.024771153926849365e-01 -8.302137255668640137e-01 -7.001312375068664551e-01 -2.109698355197906494e-01 -1.218981482088565826e-02 -3.950046841055154800e-03 1.055567245930433273e-02 1.445638388395309448e-02 5.486645102500915527e-01 9.109564125537872314e-02 -6.662181615829467773e-01 -5.940794348716735840e-01 -3.487763702869415283e-01 -9.148316979408264160e-01 -1.041873574256896973e+00 -2.004488706588745117e+00 -1.600446581840515137e+00 -8.189810514450073242e-01 -7.275321483612060547e-01 -9.248090907931327820e-03 -5.183709859848022461e-01 -3.976353108882904053e-01 4.424182176589965820e-01 1.043551638722419739e-01 1.082511305809020996e+00 9.282248616218566895e-01 -6.285630166530609131e-03 -2.926519215106964111e-01 -1.250406980514526367e+00 -2.729323148727416992e+00 -2.134044647216796875e+00 -5.081372857093811035e-01 -7.778494060039520264e-02 4.916655365377664566e-03 -2.202590182423591614e-02 2.652540989220142365e-02 6.896020174026489258e-01 7.142625451087951660e-01 1.048300713300704956e-01 -3.470773100852966309e-01 1.071295142173767090e+00 2.022559642791748047e-01 2.771356105804443359e-01 -1.478708982467651367e+00 -1.840344786643981934e+00 -1.621072292327880859e+00 -1.262880802154541016e+00 -3.977825343608856201e-01 -6.212531328201293945e-01 1.062703728675842285e-01 3.652859926223754883e-01 -6.824771761894226074e-01 3.558439314365386963e-01 5.483049154281616211e-01 3.608860671520233154e-01 5.047942996025085449e-01 -8.056486845016479492e-01 -4.152363538742065430e-01 -6.138104200363159180e-01 -1.407561063766479492e+00 1.610138714313507080e-01 -1.750634461641311646e-01 1.938196271657943726e-02 3.273074328899383545e-02 6.285356283187866211e-01 6.352154612541198730e-01 -9.077557325363159180e-01 -7.424210906028747559e-01 6.631814241409301758e-01 3.543435633182525635e-01 7.434843778610229492e-01 7.653660774230957031e-01 -1.238635778427124023e+00 -1.413956522941589355e+00 -1.808311343193054199e+00 -2.293934345245361328e+00 -1.545177578926086426e+00 -1.078315973281860352e+00 -1.914059758186340332e+00 -1.544298410415649414e+00 -1.076339721679687500e+00 -1.256396412849426270e+00 -8.523718118667602539e-01 -5.703737735748291016e-01 4.673366844654083252e-01 2.883022883906960487e-03 -1.077177047729492188e+00 -1.499908089637756348e+00 2.433558255434036255e-01 1.213372945785522461e+00 1.628943905234336853e-02 -2.945984601974487305e-01 -2.550852298736572266e-01 -1.765038371086120605e-01 1.994908154010772705e-01 4.758590757846832275e-01 1.154103994369506836e+00 9.266695976257324219e-01 1.518104434013366699e+00 3.760792911052703857e-01 -1.138129830360412598e+00 -3.149304986000061035e-01 -6.130721569061279297e-01 -8.104829192161560059e-01 -1.865617781877517700e-01 1.540726572275161743e-01 4.096566438674926758e-01 4.986438453197479248e-01 5.283201932907104492e-01 -1.334020793437957764e-01 -3.949122726917266846e-01 1.806877255439758301e-01 3.857711553573608398e-01 2.026483416557312012e-01 -5.202054381370544434e-01 -1.695871233940124512e+00 -4.510103464126586914e-01 -4.255546629428863525e-01 -2.476810291409492493e-02 8.736470341682434082e-02 -2.318353801965713501e-01 -2.436569035053253174e-01 -7.270051240921020508e-01 6.423112750053405762e-01 8.293551802635192871e-01 1.184066653251647949e+00 5.365764498710632324e-01 -7.087763398885726929e-02 1.760399341583251953e-01 4.039466381072998047e-01 1.866706490516662598e+00 1.208275675773620605e+00 5.750709176063537598e-01 1.299475669860839844e+00 2.114335060119628906e+00 1.487272381782531738e+00 1.116452455520629883e+00 8.627551198005676270e-01 8.348749876022338867e-01 -5.220515727996826172e-01 -5.124057531356811523e-01 -4.182993620634078979e-02 -1.780952811241149902e-01 -2.872218847274780273e+00 -1.083187684416770935e-01 -7.547013163566589355e-01 -6.619061231613159180e-01 8.398387432098388672e-01 1.259456872940063477e-01 2.210813313722610474e-01 2.359111905097961426e-01 4.396238327026367188e-01 1.511436700820922852e+00 7.900120019912719727e-01 -5.822051689028739929e-02 4.066885709762573242e-01 4.876102507114410400e-01 1.146562337875366211e+00 9.528504610061645508e-01 3.616226315498352051e-01 9.646716117858886719e-01 8.563914299011230469e-01 1.080708742141723633e+00 4.725804924964904785e-01 9.533679485321044922e-01 1.393950939178466797e+00 1.776139974594116211e+00 1.160875558853149414e+00 3.270129561424255371e-01 -1.306119263172149658e-01 -1.178756952285766602e+00 -2.967625617980957031e+00 6.741282939910888672e-01 -1.762432754039764404e-01 -4.132894799113273621e-03 1.025240659713745117e+00 1.197347283363342285e+00 4.926787316799163818e-01 -4.965663254261016846e-01 2.428283989429473877e-01 1.017933845520019531e+00 6.327839195728302002e-02 -1.819233536720275879e+00 -6.999695301055908203e-01 -4.588929936289787292e-02 5.191106796264648438e-01 1.313341557979583740e-01 4.405373334884643555e-01 3.503223657608032227e-01 -4.419530332088470459e-01 -3.991636037826538086e-01 -1.800605654716491699e-01 -1.143177598714828491e-02 1.270630598068237305e+00 1.624080419540405273e+00 1.477559447288513184e+00 1.289572477340698242e+00 1.488826274871826172e-01 -1.181719660758972168e+00 -2.600692987442016602e+00 -3.214828968048095703e-01 -1.921550482511520386e-01 -1.173727959394454956e-02 1.045617103576660156e+00 1.641237497329711914e+00 3.295212686061859131e-01 -3.632260859012603760e-01 -2.264714390039443970e-01 -4.086929857730865479e-01 -1.272180676460266113e+00 -2.126975297927856445e+00 -1.042272210121154785e+00 -1.519898045808076859e-02 5.771806240081787109e-01 -7.887594699859619141e-01 -5.373396724462509155e-02 1.108277201652526855e+00 1.003945827484130859e+00 1.154462933540344238e+00 1.188691973686218262e+00 9.405224919319152832e-01 1.051075696945190430e+00 2.271593570709228516e+00 1.374397516250610352e+00 1.130774140357971191e+00 1.529192328453063965e-01 -1.874410271644592285e+00 -2.222550630569458008e+00 -1.959470510482788086e+00 1.492285847663879395e+00 1.466515008360147476e-02 1.344917297363281250e+00 2.588444709777832031e+00 1.307625293731689453e+00 1.129298806190490723e+00 -7.107856124639511108e-02 -1.239102840423583984e+00 -3.395534455776214600e-01 -8.699277043342590332e-01 -5.215602517127990723e-01 1.905825585126876831e-01 1.413544297218322754e+00 3.460458219051361084e-01 1.576663136482238770e+00 2.617586612701416016e+00 2.192672491073608398e+00 1.849243402481079102e+00 2.467383384704589844e+00 2.843997716903686523e+00 2.335608959197998047e+00 2.189928293228149414e+00 1.042019724845886230e+00 5.278475284576416016e-01 7.558888792991638184e-01 -4.941881299018859863e-01 -1.491629123687744141e+00 6.915186047554016113e-01 1.691705465316772461e+00 1.077761203050613403e-01 1.749676465988159180e+00 1.878332853317260742e+00 1.865931391716003418e+00 2.721228361129760742e+00 3.705547153949737549e-01 -3.841387629508972168e-01 5.592257976531982422e-01 -7.722994089126586914e-01 3.630074858665466309e-01 9.889403581619262695e-01 1.673901677131652832e+00 6.539852917194366455e-02 1.767239809036254883e+00 3.331862926483154297e+00 2.588872909545898438e+00 1.838125824928283691e+00 2.289211273193359375e+00 2.537539243698120117e+00 1.388371348381042480e+00 4.253860414028167725e-01 -1.100788414478302002e-01 1.110046982765197754e+00 4.836659431457519531e-01 -2.258799314498901367e+00 -3.387224197387695312e+00 -1.650211691856384277e+00 7.121000885963439941e-01 1.446019951254129410e-02 7.380343675613403320e-01 1.527546882629394531e+00 1.122142910957336426e+00 3.006063461303710938e+00 1.233255743980407715e+00 -7.666762471199035645e-01 -7.084510326385498047e-01 -1.185913443565368652e+00 9.244902431964874268e-02 7.271445393562316895e-01 2.009337842464447021e-01 2.603427469730377197e-01 1.313092112541198730e+00 2.557967901229858398e+00 1.684747099876403809e+00 1.822463154792785645e+00 1.486400127410888672e+00 5.605657100677490234e-01 5.588143467903137207e-01 -1.817745864391326904e-01 -8.769052028656005859e-01 -3.649336993694305420e-01 -1.456565856933593750e+00 -3.235845804214477539e+00 -2.877962827682495117e+00 -1.403353095054626465e+00 4.693268835544586182e-01 -2.278599292039871216e-01 4.221970140933990479e-01 1.539345264434814453e+00 1.392112135887145996e+00 2.013000011444091797e+00 3.330989181995391846e-01 -1.450256228446960449e+00 -1.459667325019836426e+00 -1.050715684890747070e+00 2.215929478406906128e-01 6.931037902832031250e-01 7.689039111137390137e-01 5.468848943710327148e-01 4.796533659100532532e-02 6.219875812530517578e-01 1.714793324470520020e+00 7.806128859519958496e-01 1.541578918695449829e-01 -3.544899821281433105e-01 1.891554892063140869e-01 2.138989120721817017e-01 2.955721914768218994e-01 -4.760129004716873169e-02 -8.012351989746093750e-01 -3.080424308776855469e+00 5.503140687942504883e-01 -8.617647290229797363e-01 2.422550506889820099e-02 -1.914415210485458374e-01 1.290280520915985107e-01 2.138705253601074219e-01 6.574445217847824097e-02 -1.732537448406219482e-01 -1.610337734222412109e+00 -1.688012480735778809e+00 -2.256517171859741211e+00 -2.236923933029174805e+00 -9.322102069854736328e-01 -8.383846282958984375e-01 3.372340202331542969e-01 -6.278379559516906738e-01 -7.288927435874938965e-01 9.168677926063537598e-01 1.676394701004028320e+00 3.007501661777496338e-01 5.393535494804382324e-01 -3.008958995342254639e-01 -1.437660008668899536e-01 -1.031663656234741211e+00 -5.845916867256164551e-01 4.153492152690887451e-01 5.734459161758422852e-01 -1.236250996589660645e+00 -1.020757198333740234e+00 -1.224111199378967285e+00 -1.340149194002151489e-01 9.726137667894363403e-02 3.389260470867156982e-01 -1.247463107109069824e+00 -2.208135128021240234e+00 -4.171743094921112061e-01 -1.388304948806762695e+00 -1.751654982566833496e+00 -1.754854202270507812e+00 -2.128586769104003906e+00 -2.180095434188842773e+00 -1.567060351371765137e+00 -7.152185440063476562e-01 -1.257671952247619629e+00 -5.865385010838508606e-02 7.907931208610534668e-01 9.022805094718933105e-01 9.053041934967041016e-01 3.452289700508117676e-01 -1.042285442352294922e+00 -7.219645977020263672e-01 -1.428838133811950684e+00 -1.847727060317993164e+00 -2.430685997009277344e+00 -2.819921016693115234e+00 -2.540824890136718750e+00 -2.845399856567382812e+00 -7.485665678977966309e-01 -2.825421988964080811e-01 1.602003909647464752e-02 3.559610247611999512e-01 -4.358606934547424316e-01 -1.669201374053955078e+00 -4.742857217788696289e-01 -9.461824893951416016e-01 -2.445341348648071289e+00 -2.128427267074584961e+00 -2.426576137542724609e+00 -1.686316132545471191e+00 -9.795779585838317871e-01 -4.302031695842742920e-01 -1.062711477279663086e+00 -1.342797428369522095e-01 2.985308468341827393e-01 3.034344017505645752e-01 1.618550866842269897e-01 -8.039295077323913574e-01 -1.767510771751403809e+00 -1.723510980606079102e+00 -2.347005844116210938e+00 -2.804830312728881836e+00 -4.380851745605468750e+00 -2.410733699798583984e+00 -2.632831096649169922e+00 -1.200925111770629883e+00 -9.008663296699523926e-01 -1.873268634080886841e-01 8.604367375373840332e-01 2.032431513071060181e-01 1.204342007637023926e+00 -6.031358242034912109e-01 -7.231153249740600586e-01 -8.527647256851196289e-01 -1.633397698402404785e+00 -3.006497859954833984e+00 -2.668758153915405273e+00 -1.159624814987182617e+00 -9.967034459114074707e-01 2.257965039461851120e-03 -3.942600488662719727e-01 8.277058601379394531e-02 1.872174590826034546e-01 6.939588189125061035e-01 -2.630777359008789062e-01 -1.260114073753356934e+00 -1.123561143875122070e+00 -1.634650230407714844e+00 -2.238543510437011719e+00 -3.020622253417968750e+00 -5.331347942352294922e+00 -3.559609174728393555e+00 -3.296562194824218750e+00 -4.339769780635833740e-01 -5.850644111633300781e-01 4.802877902984619141e-01 2.177119404077529907e-01 -5.285370349884033203e-01 1.953885316848754883e+00 2.978204190731048584e-01 -6.359565854072570801e-01 -1.336747288703918457e+00 -1.395621538162231445e+00 -1.179080128669738770e+00 -1.203318834304809570e+00 -8.462207913398742676e-01 -5.739824175834655762e-01 -1.220895767211914062e+00 -1.271045804023742676e-01 1.152657717466354370e-01 1.224840164184570312e+00 -4.646203219890594482e-01 -1.168417215347290039e+00 -1.343561053276062012e+00 -5.386289954185485840e-01 -1.128697752952575684e+00 -3.609016418457031250e+00 -4.376224517822265625e+00 -3.918459892272949219e+00 -2.133362531661987305e+00 -2.771875858306884766e-01 6.128232479095458984e-01 9.225146472454071045e-02 4.767279028892517090e-01 -3.273199871182441711e-02 -1.353886425495147705e-01 7.749898433685302734e-01 -6.599347591400146484e-01 -1.191523551940917969e+00 -1.507179975509643555e+00 -3.438096344470977783e-01 -9.161681532859802246e-01 -8.452010154724121094e-01 -1.772961735725402832e+00 -2.657793521881103516e+00 -2.147161006927490234e+00 -4.133095741271972656e-01 1.549616754055023193e-01 3.500304520130157471e-01 -1.373568892478942871e+00 -1.856213927268981934e+00 -2.123445749282836914e+00 -3.101726531982421875e+00 -3.995591878890991211e+00 -3.833555936813354492e+00 -3.365037202835083008e+00 -1.991324424743652344e+00 1.790815889835357666e-01 9.091150760650634766e-01 7.754774689674377441e-01 2.355181053280830383e-02 -4.165118932723999023e-02 -8.630055002868175507e-03 1.304893642663955688e-01 3.637129068374633789e-01 -1.596124649047851562e+00 -1.441130399703979492e+00 -2.085394859313964844e+00 -7.154672741889953613e-01 5.404616594314575195e-01 4.907191395759582520e-01 -8.852147459983825684e-01 -1.398039698600769043e+00 -9.487838745117187500e-01 -1.289396136999130249e-01 4.322844445705413818e-01 -8.970699459314346313e-02 -8.518704771995544434e-01 -1.967104673385620117e+00 -3.599493503570556641e+00 -5.396815776824951172e+00 -3.847497463226318359e+00 -2.805522680282592773e+00 -2.517288923263549805e+00 -7.059426307678222656e-01 1.363788545131683350e-01 7.100383639335632324e-01 4.481271505355834961e-01 -1.709319204092025757e-01 2.015385031700134277e-02 -3.099254332482814789e-02 3.851136891171336174e-03 -4.748960435390472412e-01 -1.173637151718139648e+00 -2.571613311767578125e+00 -1.119285583496093750e+00 -3.085480928421020508e-01 7.434372901916503906e-01 1.783913373947143555e-01 2.554195523262023926e-01 -2.832764387130737305e-01 -4.570118784904479980e-01 -1.068565547466278076e-01 1.780092269182205200e-01 5.424365401268005371e-01 1.714955270290374756e-02 -2.530905485153198242e+00 -5.341508865356445312e+00 -5.068962574005126953e+00 -4.395481109619140625e+00 -3.507882833480834961e+00 -2.895604372024536133e+00 -1.782198071479797363e+00 -2.712233364582061768e-01 4.997858405113220215e-01 -3.084390461444854736e-01 4.987818598747253418e-01 -2.991469949483871460e-02 -8.636454120278358459e-03 -3.454613033682107925e-03 -1.898640036582946777e+00 -2.105592966079711914e+00 -1.555888772010803223e+00 -4.264305830001831055e-01 4.119599759578704834e-01 1.492177605628967285e+00 1.044328927993774414e+00 3.495081514120101929e-02 -2.260779030621051788e-02 2.866784110665321350e-02 1.146312117576599121e+00 1.625512361526489258e+00 4.093642234802246094e-01 -1.116853713989257812e+00 -3.346274852752685547e+00 -4.711483001708984375e+00 -4.577988147735595703e+00 -4.692230224609375000e+00 -2.940078496932983398e+00 -2.340424299240112305e+00 -6.700040102005004883e-01 -3.140072822570800781e-01 1.257054328918457031e+00 -2.260889858007431030e-01 1.181122660636901855e+00 -1.530408114194869995e-02 8.164465427398681641e-03 -1.034566760063171387e-02 5.260173082351684570e-01 8.934384584426879883e-02 1.401307344436645508e+00 2.103265047073364258e+00 2.250527381896972656e+00 2.445494174957275391e+00 1.718945860862731934e+00 3.992134928703308105e-01 1.513332128524780273e+00 1.663623929023742676e+00 2.069176912307739258e+00 7.875761389732360840e-01 1.741542667150497437e-02 -1.482925564050674438e-01 -1.732715487480163574e+00 -3.406759738922119141e+00 -3.065452337265014648e+00 -1.707853794097900391e+00 -5.335500240325927734e-01 -4.249445497989654541e-01 5.890130996704101562e-01 1.921969503164291382e-01 6.501380801200866699e-01 5.211417675018310547e-01 2.997132837772369385e-01 1.046753395348787308e-02 1.177850831300020218e-02 2.072012983262538910e-02 -1.994566619396209717e-01 3.388060033321380615e-01 2.633500099182128906e+00 2.941124439239501953e+00 2.237692356109619141e+00 3.536442279815673828e+00 3.761742591857910156e+00 2.126183748245239258e+00 1.750438570976257324e+00 2.288728713989257812e+00 2.862559795379638672e+00 2.476882457733154297e+00 2.611757993698120117e+00 2.885109901428222656e+00 2.612006902694702148e+00 1.465463161468505859e+00 1.076428890228271484e+00 1.827215790748596191e+00 3.575102329254150391e+00 2.920850753784179688e+00 3.294899940490722656e+00 2.340795040130615234e+00 9.301024079322814941e-01 5.938225388526916504e-01 1.122542377561330795e-02 2.594413608312606812e-02 -4.297682549804449081e-03 1.938825473189353943e-02 1.154602877795696259e-02 2.390009909868240356e-01 -6.543532013893127441e-01 1.037513136863708496e+00 1.006416440010070801e+00 2.312069892883300781e+00 3.479926824569702148e+00 3.872756242752075195e+00 2.278306007385253906e+00 2.678365230560302734e+00 1.342334985733032227e+00 2.428517818450927734e+00 3.721839904785156250e+00 4.103281497955322266e+00 3.308698415756225586e+00 4.760057449340820312e+00 4.456773757934570312e+00 3.446377515792846680e+00 2.091242790222167969e+00 1.743714928627014160e+00 1.326687335968017578e+00 9.957326948642730713e-02 -4.864216148853302002e-01 2.352520450949668884e-02 -2.113769762217998505e-02 -2.097662538290023804e-02 -1.442667935043573380e-02 2.539192093536257744e-03 1.210211496800184250e-02 -2.052338235080242157e-02 2.556354403495788574e-01 2.823331654071807861e-01 3.606884777545928955e-01 2.014935910701751709e-01 3.283647894859313965e-01 3.366666138172149658e-01 1.415927529335021973e+00 3.006697297096252441e-01 -4.837080836296081543e-03 1.784943342208862305e+00 2.874773979187011719e+00 9.507824182510375977e-01 1.609029471874237061e-01 2.427115440368652344e+00 1.333304286003112793e+00 1.001025795936584473e+00 5.138131976127624512e-01 5.119965672492980957e-01 7.785808444023132324e-01 5.021145343780517578e-01 1.027772296220064163e-02 -1.899302151286974549e-04 -7.403650786727666855e-03 9.490719996392726898e-03
