-3.260924220085144043e-01 1.277083635330200195e+00 -1.200585365295410156e-01 -4.113726913928985596e-01 1.922188639640808105e+00 -4.161370754241943359e+00 7.574983835220336914e-01 1.179099753499031067e-01 -1.909725219011306763e-01 -7.926434278488159180e-03 7.551790773868560791e-02 -3.935564994812011719e+00 1.176412403583526611e-01 -1.339686870574951172e+00 -2.941273152828216553e-02 -1.653188019990921021e-01 -3.931246757507324219e+00 1.729786396026611328e+00 -1.307419896125793457e+00 -6.831607222557067871e-01 -1.459119081497192383e+00 1.981894671916961670e-02 -2.025931835174560547e+00 -2.149643935263156891e-02 -8.554626703262329102e-01 2.773400068283081055e+00 1.326480984687805176e+00 -2.189075052738189697e-01 -9.744921326637268066e-01 -1.399282455444335938e+00
-2.943652868270874023e+00 -5.036687254905700684e-01 5.909233167767524719e-02 -6.341105699539184570e-02 -1.531271219253540039e+00 -1.556645750999450684e+00 -7.889652252197265625e-01 -8.013460040092468262e-02 -6.402478814125061035e-01 -7.759646773338317871e-01 4.412180930376052856e-02 -3.529998540878295898e+00 -8.266840875148773193e-02 1.135530948638916016e+00 5.281198024749755859e-01 7.722542434930801392e-02 8.811266422271728516e-01 -2.967701554298400879e-01 3.487594604492187500e+00 6.536865830421447754e-01 1.971892952919006348e+00 1.145834252238273621e-01 1.773242235183715820e+00 4.488100763410329819e-03 -8.857226967811584473e-01 -2.234470367431640625e+00 -2.319458723068237305e+00 9.630627185106277466e-02 -1.858264684677124023e+00 1.145207405090332031e+00
-1.957892417907714844e+00 -5.975595116615295410e-01 -1.186787635087966919e-01 -5.369476318359375000e+00 9.594793915748596191e-01 -2.613298654556274414e+00 2.553809404373168945e+00 -8.413038216531276703e-03 2.021105527877807617e+00 -3.943371295928955078e+00 4.892982915043830872e-02 -2.458290100097656250e+00 -4.420330375432968140e-02 3.540569543838500977e-01 -1.611455798149108887e+00 4.158215597271919250e-04 3.338456630706787109e+00 1.065408349037170410e+00 -1.111524701118469238e+00 2.154956102371215820e+00 -3.557516574859619141e+00 2.993370406329631805e-02 -1.227958321571350098e+00 1.420112792402505875e-02 6.488943696022033691e-01 -8.664844632148742676e-01 1.925760149955749512e+00 -7.191682606935501099e-02 -2.042162179946899414e+00 3.194532170891761780e-02
1.166476249694824219e+00 3.718985617160797119e-01 -2.582321316003799438e-02 -6.554530262947082520e-01 -4.550788551568984985e-02 2.695480585098266602e+00 -3.918043375015258789e-01 -1.544607430696487427e-02 -3.693830072879791260e-01 -2.593190670013427734e+00 -1.836365014314651489e-01 3.303489387035369873e-01 -1.272234320640563965e-01 -1.591598033905029297e+00 -1.692997574806213379e+00 1.158285960555076599e-01 -7.323938608169555664e-01 -6.864613890647888184e-01 -1.509151935577392578e+00 1.779348254203796387e+00 -3.096300601959228516e+00 4.201065376400947571e-02 2.526359796524047852e+00 2.056932449340820312e-02 3.193771541118621826e-01 -1.036224365234375000e+00 8.366716094315052032e-03 7.559604942798614502e-02 -7.887203693389892578e-01 1.338275074958801270e+00
-2.700265884399414062e+00 -2.324933528900146484e+00 -4.624782502651214600e-02 1.022374391555786133e+00 1.380791068077087402e+00 -2.372078001499176025e-01 1.504457235336303711e+00 -3.731188550591468811e-02 -3.112514495849609375e+00 5.931270718574523926e-01 2.280510067939758301e-01 4.134170413017272949e-01 8.521575480699539185e-02 -2.550241649150848389e-01 1.289206385612487793e+00 5.389247089624404907e-02 -2.077214002609252930e+00 -1.660720109939575195e+00 3.255125999450683594e+00 -4.360677242279052734e+00 -6.566508859395980835e-02 -1.964057683944702148e-01 -5.519710183143615723e-01 1.235687732696533203e-01 1.104117512702941895e+00 -2.584464788436889648e+00 -5.935701370239257812e+00 -5.562641844153404236e-02 1.051728129386901855e+00 4.854381978511810303e-01
3.047796726226806641e+00 3.265432715415954590e-01 1.326159946620464325e-02 -6.118924021720886230e-01 -1.136034369468688965e+00 1.905566811561584473e+00 8.089863061904907227e-01 5.837353318929672241e-02 2.761773206293582916e-02 1.051868438720703125e+00 2.717020735144615173e-02 4.456993639469146729e-01 -9.611263126134872437e-02 5.546730756759643555e-01 1.281650304794311523e+00 -2.734087780117988586e-02 -1.466262102127075195e+00 -2.016288518905639648e+00 2.633667886257171631e-01 -1.078796029090881348e+00 1.240953087806701660e+00 9.833383373916149139e-04 1.693315625190734863e+00 -9.275879710912704468e-02 -3.588876724243164062e+00 1.747667789459228516e-01 1.262867212295532227e+00 1.893284916877746582e-02 -1.276074171066284180e+00 -5.620689392089843750e+00
-1.786668419837951660e+00 -2.446318715810775757e-01 -3.239339590072631836e-01 -1.031018376350402832e+00 9.623521566390991211e-01 -3.676467895507812500e+00 -1.527221441268920898e+00 1.313863601535558701e-02 2.220989704132080078e+00 1.252167701721191406e+00 -4.869533702731132507e-02 -4.859555721282958984e+00 -1.744019053876399994e-02 -3.326585888862609863e-01 1.571420073509216309e+00 1.609650850296020508e-01 -2.064302206039428711e+00 -6.005698442459106445e-01 1.259164929389953613e+00 -1.699851512908935547e+00 2.920527935028076172e+00 1.806090623140335083e-01 -3.447912216186523438e+00 -1.229325160384178162e-01 -2.161445856094360352e+00 -1.153237223625183105e+00 -3.416276574134826660e-01 6.142842769622802734e-02 8.156784176826477051e-01 -3.259449720382690430e+00
1.033207893371582031e+00 -3.579084873199462891e+00 7.283684797585010529e-03 1.374277710914611816e+00 -3.811681270599365234e+00 -3.913062810897827148e+00 -1.584925770759582520e+00 -5.720373243093490601e-02 -1.016235470771789551e+00 1.405958294868469238e+00 -8.792521804571151733e-02 1.212084531784057617e+00 -2.191283740103244781e-02 -3.110878944396972656e+00 4.422277212142944336e-01 2.199835181236267090e-01 1.764233231544494629e+00 -6.046077609062194824e-01 -1.210850954055786133e+00 2.021646738052368164e+00 -2.840757369995117188e+00 -5.587602406740188599e-02 -1.478346943855285645e+00 -5.941016599535942078e-03 2.829730808734893799e-01 2.509896993637084961e+00 1.470009386539459229e-01 -8.356395363807678223e-02 -5.076068639755249023e-02 1.286952376365661621e+00
-2.731324434280395508e-01 1.913385391235351562e+00 5.310948565602302551e-02 -4.373118877410888672e-01 -2.261432647705078125e+00 -9.257384538650512695e-01 -3.842470169067382812e+00 2.003195323050022125e-02 -9.417586922645568848e-01 -2.055073976516723633e+00 1.957100257277488708e-02 6.370529532432556152e-02 -1.811383962631225586e-01 1.301061153411865234e+00 8.476188778877258301e-01 -8.184398710727691650e-02 7.008689045906066895e-01 3.672879934310913086e-01 -1.793642401695251465e+00 -9.690471887588500977e-01 -1.870374083518981934e+00 -5.294546112418174744e-02 -3.408358573913574219e+00 9.563833475112915039e-02 -3.745085299015045166e-01 -1.596582770347595215e+00 -5.450432896614074707e-01 8.014730177819728851e-03 7.848339676856994629e-01 -1.925421357154846191e-01
-3.052182495594024658e-01 -1.448428153991699219e+00 -4.885655269026756287e-02 1.427313923835754395e+00 -1.714860320091247559e+00 1.089613199234008789e+00 -1.093405127525329590e+00 2.865045517683029175e-02 -3.626041650772094727e+00 7.691330909729003906e-01 -1.811751872301101685e-01 1.323096752166748047e+00 3.570548957213759422e-03 5.553736090660095215e-01 -4.064412593841552734e+00 -1.400459464639425278e-02 -3.081839323043823242e+00 1.331385612487792969e+00 -2.943578004837036133e+00 -4.664165973663330078e+00 4.510173201560974121e-02 9.788583964109420776e-02 -4.076536595821380615e-01 1.042362749576568604e-01 1.518966197967529297e+00 -6.157686114311218262e-01 -2.131317377090454102e+00 -3.879753500223159790e-02 9.170205593109130859e-01 -1.290923077613115311e-02
